/*
  AIfES: Configuration file automatically generated from AIfES-Converter
  https://github.com/Fraunhofer-IMS/AIfES-Converter

  Add this file to your IDE with the aifes_f32_fnn.h file

  Copyright (C) 2022  Fraunhofer Institute for Microelectronic Circuits and Systems.
  All rights reserved.
  AIfES-Converter is free software: you can redistribute it and/or modify
  it under the terms of the GNU Affero General Public License as published by
  the Free Software Foundation, either version 3 of the License, or
  (at your option) any later version.
  This program is distributed in the hope that it will be useful,
  but WITHOUT ANY WARRANTY; without even the implied warranty of
  MERCHANTABILITY or FITNESS FOR A PARTICULAR PURPOSE.  See the
  GNU Affero General Public License for more details.
  You should have received a copy of the GNU Affero General Public License
  along with this program.  If not, see <https://www.gnu.org/licenses/>.
*/

#ifndef AIFES_F32_WEIGHTS
#define AIFES_F32_WEIGHTS


const float aifes_f32_flat_weights[] = {0.061120838f, 0.25422516f, -0.23227286f, 0.13918236f, -0.08932485f, -0.23360156f, 
		0.20017329f, 0.17047286f, -0.15216082f, -0.20966461f, 0.21507332f, 
		0.09630641f, 0.011389911f, -0.13403685f, -0.041957915f, 0.1141994f, 
		0.24566057f, 0.17279974f, -0.05157286f, 0.23017165f, 0.28402635f, 
		-0.23163638f, -0.041778833f, -0.10763404f, -0.26628977f, -0.2631318f, 
		0.058258563f, -0.229529f, 0.045428574f, 0.2459977f, 0.20613787f, 
		-0.2052129f, 0.14216319f, -0.2317437f, 0.2203379f, 0.11434826f, 
		0.15995014f, -0.21260457f, 0.21175131f, 0.0003079772f, -0.030796856f, 
		-0.12972303f, -0.040190935f, 0.0033754706f, -0.27432233f, -0.03529632f, 
		0.018991292f, -0.2721377f, 0.044284344f, -0.18524334f, -0.19843993f, 
		-0.04469973f, -0.08934595f, 0.12474623f, -0.12840027f, -0.21313506f, 
		0.30061546f, 0.258889f, -0.24832779f, -0.2601463f, -0.26008672f, 
		-0.05753672f, 0.16418687f, -0.10873598f, 0.23199287f, 0.20567754f, 
		0.03173557f, -0.2555322f, -0.2427364f, -0.07857597f, -0.28115472f, 
		-0.19326492f, 0.24701336f, 0.12368816f, 0.018248945f, -0.20084105f, 
		0.099416435f, -0.28342658f, -0.30405417f, -0.25058365f, 0.30430982f, 
		-0.1763991f, -0.20404133f, -0.07051116f, 0.004249513f, 0.22318038f, 
		0.22457942f, -0.015775621f, -0.29303402f, -0.30542132f, 0.110167295f, 
		0.15767455f, 0.24395177f, 0.08911762f, 0.06691173f, 0.15438056f, 
		0.16047683f, -0.19714905f, -0.04449773f, 0.24841908f, -0.25732452f, 
		0.252575f, -0.08563891f, -0.024652272f, -0.2915581f, -0.016759098f, 
		0.04805264f, 0.15548941f, 0.24819764f, 0.21159032f, 0.23065343f, 
		0.1135667f, 0.27536532f, 0.06480348f, -0.031203777f, -0.2957752f, 
		-0.12611301f, -0.2464062f, -0.09979166f, -0.22593686f, -0.22237474f, 
		-0.21836811f, 0.2828836f, -0.10789713f, 0.054963022f, -0.06320675f, 
		0.24563488f, 0.11242849f, -0.15964119f, -0.1165214f, -0.09504619f, 
		0.07944512f, -0.1248028f, 0.28532854f, -0.1641621f, 0.22413996f, 
		-0.21491642f, -0.19632247f, -0.14012545f, 0.061283976f, 0.2405133f, 
		-0.08135101f, -0.0733652f, -0.082164094f, -0.09158385f, -0.30534673f, 
		-0.03756371f, -0.2071418f, -0.07164991f, -0.03418511f, -0.08019176f, 
		-0.13815372f, -0.121801674f, -0.15404044f, 0.2458848f, 0.27090362f, 
		0.17909107f, -0.22766852f, 0.22736588f, 0.22334293f, -0.20423907f, 
		-0.2609525f, -0.159218f, -0.020249546f, 0.12869021f, 0.17037043f, 
		0.1979774f, 0.03182566f, -0.20871305f, 0.05164793f, -0.12731314f, 
		0.051636457f, 0.02826339f, 0.2096627f, 0.06775591f, -0.09277581f, 
		0.06882173f, 0.14859542f, -0.037980318f, -0.033384353f, -0.04600957f, 
		-0.00087469816f, -0.19371322f, 0.21410415f, -0.04224801f, -0.23935866f, 
		0.017483532f, 0.021399438f, 0.042749316f, 0.05029857f, 0.22067294f, 
		0.16571075f, 0.013752848f, -0.023803473f, -0.23462999f, -0.15701485f, 
		-0.008785039f, -0.13175426f, -0.26784718f, -0.02013281f, -0.13371046f, 
		-0.122747034f, -0.043373078f, -0.2471227f, -0.11487043f, 0.09836531f, 
		0.189345f, -0.010879397f, 0.2725335f, -0.18039244f, -0.073624134f, 
		0.0036622286f, 0.08846614f, 0.03885764f, -0.017701954f, -0.07552974f, 
		0.004977256f, -0.12242912f, -0.1530972f, -0.2874126f, 0.10016528f, 
		-0.027288526f, -0.11390427f, 0.30352798f, -0.042304814f, 0.091269225f, 
		-0.18671027f, 0.19496909f, 0.013487726f, -0.2785551f, -0.18639177f, 
		0.19023788f, 0.08899912f, 0.14164606f, 0.24136266f, -0.28147584f, 
		0.11162484f, -0.21068123f, 0.1552467f, -0.18160294f, -0.21666259f, 
		0.18449363f, 0.16429555f, -0.2288409f, -0.27479455f, -0.070424005f, 
		-0.12353194f, 0.2543938f, 0.2042326f, 0.07940504f, 0.13628992f, 
		0.04085946f, -0.17007996f, 0.21888581f, 0.058505595f, 0.10557762f, 
		0.22283712f, 0.060225606f, -0.0063429475f, -0.119930744f, 0.25990084f, 
		0.08189529f, 0.23242858f, 0.04175359f, 0.08084014f, -0.007150024f, 
		0.22746292f, 0.22863284f, 0.07993546f, -0.18683262f, -0.14841554f, 
		0.10415453f, -0.20922267f, -0.17039868f, 0.24680999f, -0.052246243f, 
		0.12833267f, 0.08984083f, 0.0108317435f, -0.14583f, -0.1536323f, 
		0.2597451f, -0.18105288f, -0.1511305f, -0.3021007f, -0.08484189f, 
		-0.19495189f, 0.25751147f, -0.04856971f, -0.15056168f, 0.21267256f, 
		-0.14423764f, 0.2918047f, -0.03273073f, 0.24508622f, 0.30519858f, 
		0.24085435f, 0.26248845f, -0.048642337f, -0.17586124f, 0.03690079f, 
		0.3040147f, 0.053144425f, -0.2195813f, 0.29424503f, -0.041170746f, 
		-0.1214204f, -0.17011449f, -0.14629123f, -0.14936432f, -0.043322653f, 
		0.014139533f, 0.20389852f, -0.1940507f, -0.22284538f, -0.0061892867f, 
		0.18618181f, 0.22543779f, -0.2636568f, -0.07620448f, 0.24146578f, 
		0.1727533f, 0.123147726f, 0.19224161f, -0.20996231f, -0.19511738f, 
		0.10828075f, 0.07551935f, -0.041105926f, 0.09012091f, -0.26108688f, 
		-0.04192674f, 0.12525037f, 0.2587773f, 0.09253293f, 0.076426536f, 
		0.26105782f, 0.056631148f, 0.14714569f, 0.065440476f, 0.1428451f, 
		-0.09402849f, -0.12893711f, -0.09502721f, 0.10380742f, -0.19181469f, 
		-0.25045758f, 0.042434007f, -0.17906077f, 0.24983409f, -0.022199154f, 
		-0.028893381f, 0.110655665f, 0.075648725f, 0.011405021f, 0.19824997f, 
		0.24035242f, 0.2688835f, -0.22695245f, 0.008805454f, 0.003347516f, 
		-0.21015263f, 0.1379407f, 0.24662939f, 0.16853827f, -0.23390436f, 
		-0.17921896f, 0.27539954f, -0.09391688f, 0.30144653f, -0.25541782f, 
		0.12407571f, 0.22664186f, 0.06621918f, -0.015155047f, -0.100369975f, 
		-0.2878405f, 0.06781644f, 0.24815252f, -0.09592205f, -0.19598776f, 
		-0.021426022f, -0.18870378f, -0.114019096f, 0.28937998f, -0.10112625f, 
		0.08438754f, 0.24141422f, 0.088516235f, 0.30013338f, -0.24106455f, 
		0.11486781f, -0.16619378f, -0.120721996f, 0.241187f, 0.26035485f, 
		-0.2103098f, 0.1448907f, 0.2976006f, 0.07459816f, -0.058981106f, 
		0.04974407f, -0.10971579f, -0.067449525f, 0.08333495f, -0.0646501f, 
		0.30315444f, -0.040854424f, 0.24118784f, 0.17321f, 0.29846892f, 
		-0.1727363f, 0.28274706f, 0.2143865f, 0.04240358f, 0.14210522f, 
		0.16295001f, 0.03742057f, 0.25219998f, -0.19758603f, -0.10501799f, 
		-0.009919465f, 0.27585754f, -0.2773341f, -0.25545827f, -0.14861271f, 
		-0.0008353591f, -0.19017166f, 0.06550267f, -0.05720961f, 0.25589094f, 
		0.061212063f, -0.29717314f, 0.22458372f, -0.18549839f, 0.28251955f, 
		0.19912139f, 0.28135553f, 0.21877602f, -0.06840539f, -0.22045234f, 
		-0.19883522f, -0.037443697f, 0.015685469f, -0.047020644f, -0.22420281f, 
		-0.25917837f, -0.12458621f, -0.16465107f, -0.26144928f, 0.28327093f, 
		-0.17362341f, 0.2364851f, 0.13104719f, -0.07549776f, 0.14270523f, 
		-0.22726592f, -0.28677636f, 0.25446585f, -0.21740954f, 0.16685626f, 
		-0.11444454f, -0.15255962f, -0.21642002f, -0.030639976f, 0.13017446f, 
		0.22634539f, 0.29451826f, -0.28028345f, -0.27558297f, 0.017348498f, 
		0.27100465f, 0.20892695f, 0.25305888f, 0.2848021f, 0.015200883f, 
		-0.28094596f, -0.10082543f, 0.08406511f, -0.2239922f, -0.14068025f, 
		0.033323765f, -0.03827095f, -0.25972325f, 0.23245671f, 0.2292746f, 
		0.15312296f, 0.10108167f, 0.1330891f, 0.15173194f, 0.1262277f, 
		0.12894666f, 0.22235122f, -0.17214121f, 0.1028595f, 0.292937f, 
		-0.09535141f, 0.30208728f, -0.27018312f, 0.09969196f, -0.119810805f, 
		-0.2857542f, 0.056978256f, -0.13048713f, 0.08377814f, 0.119715095f, 
		0.24423215f, -0.049881607f, 0.06953451f, 0.2860361f, -0.18743443f, 
		-0.15589407f, -0.038716674f, -0.27898645f, 0.17076331f, 0.2763755f, 
		-0.27270696f, -0.14551559f, 0.21139237f, -0.09298451f, 0.07457343f, 
		-0.06010014f, 0.028297246f, 0.104450256f, 0.22921523f, -0.27686834f, 
		-0.28172845f, 0.119865775f, 0.026769072f, 0.13271752f, 0.056078613f, 
		-0.14619537f, 0.21274099f, 0.105397165f, 0.027373433f, -0.09255096f, 
		0.048534006f, -0.21492168f, 0.22389379f, 0.06674683f, 0.11132684f, 
		0.29496518f, 0.18526077f, -0.2565854f, 0.20630571f, -0.19287851f, 
		-0.11198522f, -0.20107655f, -0.07449736f, -0.07851158f, 0.06723979f, 
		0.22065815f, -0.24124339f, -0.020192236f, 0.19838515f, 0.09076998f, 
		-0.14060426f, -0.27333105f, -0.27746534f, 0.18834454f, 0.25103274f, 
		-0.16329807f, 0.19293764f, 0.30480906f, -0.25063118f, -0.3020728f, 
		0.2421827f, 0.12774691f, -0.016307205f, -0.10901089f, 0.26468602f, 
		-0.20363003f, 0.101952195f, -0.18721361f, 0.15580347f, -0.15592174f, 
		-0.03424877f, 0.03345889f, -0.1284915f, 0.0062211156f, -0.032435566f, 
		-0.24262968f, -0.08428016f, -0.2197384f, 0.025913715f, 0.21698496f, 
		0.1767931f, 0.16932061f, -0.0426282f, -0.009593576f, 0.30523863f, 
		-0.09330112f, 0.2192165f, -0.15724888f, 0.17988816f, 0.124260545f, 
		-0.08869909f, -0.06227584f, 0.19383952f, -0.15045385f, 0.14440256f, 
		-0.1866251f, 0.0032173395f, 0.21158996f, -0.2855442f, -0.06819764f, 
		-0.015580565f, -0.21457464f, 0.10308269f, 0.052765697f, 0.12368712f, 
		-0.109897345f, 0.10172033f, 0.30239275f, 0.18145037f, 0.20207247f, 
		-0.14461498f, 0.18771061f, 0.25897953f, -0.0060756803f, 0.20638064f, 
		0.02040115f, 0.19570199f, 0.22308138f, -0.1978395f, 0.0933747f, 
		0.05682972f, -0.19639474f, -0.24202332f, 0.017608374f, -0.07149689f, 
		-0.015921324f, 0.20720145f, 0.097165614f, 0.079224944f, -0.0939752f, 
		-0.2008515f, -0.21485642f, 0.2060689f, 0.25619403f, -0.22722504f, 
		0.22626594f, 0.16847387f, -0.09045571f, 0.103818655f, -0.2458952f, 
		-0.01299271f, 0.005740255f, -0.014155656f, -0.07250014f, -0.087012485f, 
		0.23539999f, 0.27366045f, 0.30007705f, 0.17983547f, -0.2325102f, 
		0.10915187f, 0.1786884f, -0.19983342f, -0.28806657f, 0.21814618f, 
		-0.10776083f, -0.09359151f, 0.23392954f, -0.10126875f, -0.20323262f, 
		-0.25956208f, 0.045798898f, 0.16589302f, -0.22791292f, -0.05797355f, 
		0.26033965f, 0.012037188f, -0.037142783f, 0.2216892f, 0.27525792f, 
		-0.1569836f, -0.22461052f, -0.22914472f, -0.0027172267f, 0.18685621f, 
		-0.17044796f, 0.24931774f, 0.027931452f, -0.010440022f, 0.09654388f, 
		0.09406024f, 0.18880913f, 0.30203894f, 0.04262966f, 0.2743025f, 
		0.21108916f, -0.2667597f, -0.059308663f, 0.049516022f, 0.21595255f, 
		-0.16926667f, 0.0049185455f, -0.2713047f, -0.21302643f, 0.140542f, 
		0.08813408f, -0.21720295f, -0.26773432f, -0.034801364f, -0.10170494f, 
		-0.28468066f, 0.0019813776f, 0.2822295f, 0.064202905f, 0.28501847f, 
		0.02757141f, 0.28336045f, -0.12526233f, 0.23596665f, -0.0030063689f, 
		0.027486503f, 0.2914075f, 0.13260436f, 0.13465932f, 0.19586882f, 
		0.09600848f, -0.011978865f, -0.017508805f, 0.10877249f, 0.18548241f, 
		0.16059092f, -0.15834624f, -0.2704309f, 0.011394143f, 0.17976603f, 
		0.21289518f, 0.05790764f, 0.22527614f, -0.04698938f, -0.038903505f, 
		-0.09227137f, -0.17625712f, 0.21187398f, 0.20039889f, 0.18751451f, 
		-0.123400465f, 0.016985536f, -0.11048967f, -0.058344916f, -0.07628836f, 
		-0.021425784f, -0.07513495f, 0.16855168f, 0.23724625f, 0.14275998f, 
		0.27351484f, 0.061125576f, 0.17319831f, 0.13289803f, 0.21990499f, 
		-0.07146835f, 0.12835902f, 0.050733954f, 0.09661752f, 0.252372f, 
		0.1440188f, -0.26869524f, -0.29429278f, -0.20107335f, -0.13139898f, 
		-0.19324732f, 0.10348651f, -0.07783349f, 0.19406709f, -0.086106986f, 
		0.212113f, -0.0046063364f, 0.13535976f, 0.2603182f, -0.2732346f, 
		-0.05044815f, -0.025174946f, 0.17668805f, 0.25976315f, -0.117174685f, 
		-0.09590125f, -0.29771307f, -0.1785489f, 0.29107776f, -0.1656381f, 
		-0.12782371f, 0.092395335f, -0.13372557f, -0.2464092f, 0.08469546f, 
		0.2664536f, -0.187726f, -0.14832546f, 0.30463108f, -0.04013604f, 
		-0.30454394f, 0.2210643f, 0.0056907535f, -0.20942986f, -0.25947154f, 
		0.048398525f, 0.009382963f, -0.012639582f, 0.27055177f, -0.09353122f, 
		-0.12627777f, 0.06264019f, 0.16164929f, 0.060571283f, -0.22371131f, 
		-0.023099482f, -0.15586808f, 0.30144432f, 0.19539586f, -0.14264463f, 
		0.3025953f, -0.20912004f, -0.20133819f, 0.20702526f, -0.11122683f, 
		-0.0019404292f, -0.026920825f, 0.28876212f, -0.05937998f, 0.16699854f, 
		0.07781443f, -0.22222349f, -0.30254817f, 0.101754725f, 0.18190596f, 
		0.2757748f, -0.22326475f, -0.08343685f, -0.1879572f, 0.0010403991f, 
		0.09331417f, 0.29919186f, -0.26466033f, -0.04420069f, -0.033166826f, 
		0.11412269f, 0.053025067f, 0.0980182f, -0.033090025f, 0.10485637f, 
		-0.10649121f, 0.042770475f, 0.2275652f, 0.23766658f, 0.10682285f, 
		-0.08952312f, -0.29452658f, 0.19506142f, 0.2126719f, 0.19717893f, 
		0.056648165f, 0.30551812f, -0.20695478f, -0.08079752f, 0.30153045f, 
		0.14027482f, -0.25582254f, 0.24861744f, -0.03727755f, 0.03508541f, 
		-0.24830538f, -0.040920436f, 0.13949722f, -0.056215778f, -0.19714853f, 
		-0.15274118f, -0.14168116f, -0.29652578f, -0.29113644f, -0.010489583f, 
		0.033230394f, -0.06921986f, 0.25762615f, -0.12180467f, 0.2330856f, 
		-0.13940924f, -0.22163868f, 0.05336708f, -0.1638509f, -0.071257606f, 
		-0.1624139f, -0.050330758f, -0.23108289f, -0.30418807f, -0.057230264f, 
		-0.09814404f, 0.19609573f, -0.16401967f, -0.23793063f, -0.18867785f, 
		0.12776837f, 0.034763426f, 0.09215295f, -0.2467531f, 0.24854925f, 
		-0.30580437f, 0.12870759f, -0.12636603f, 0.23085251f, -0.14967647f, 
		-0.06414421f, -0.14273186f, 0.10971922f, -0.019502431f, 0.0031822324f, 
		0.16179675f, 0.29768458f, 0.1369606f, 0.08534399f, -0.26635176f, 
		-0.22252396f, -0.19442175f, 0.23202375f, -0.25045955f, 0.25715628f, 
		0.28114876f, 0.28331396f, 0.0019134283f, 0.15468717f, 0.10401487f, 
		0.116607845f, -0.052878052f, -0.042896986f, -0.25669447f, 0.2910348f, 
		0.15859881f, 0.21138373f, -0.004921049f, 0.03595397f, 0.25385782f, 
		0.106901765f, -0.049093843f, -0.1578261f, -0.23150784f, -0.24813244f, 
		-0.18267919f, -0.13554716f, 0.03628686f, -0.06109433f, -0.25399256f, 
		-0.08316493f, 0.2771835f, 0.012265474f, -0.09334405f, 0.22981909f, 
		-0.01845181f, -0.0125101805f, 0.049068004f, 0.20210657f, -0.3000285f, 
		-0.08433841f, 0.21772489f, 0.023011148f, -0.15055898f, 0.15141249f, 
		-0.18096952f, 0.20094016f, 0.026786655f, -0.052844673f, 0.24864754f, 
		-0.23858398f, 0.055790186f, 0.1895965f, 0.04940477f, 0.22920296f, 
		-0.010563463f, 0.13068005f, 0.10707003f, 0.18764073f, 0.27441344f, 
		0.2447817f, -0.21832904f, 0.07986486f, -0.05309522f, 0.2633905f, 
		-0.27462184f, -0.14122689f, 0.17203563f, -0.02319926f, -0.2886891f, 
		0.14834186f, 0.036761224f, 0.07408869f, 0.11922243f, 0.11739609f, 
		-0.29041132f, 0.11487299f, -0.20080528f, 0.027838439f, 0.2385107f, 
		-0.054373622f, -0.18225235f, 0.15635777f, 0.17487085f, -0.011235952f, 
		-0.30588344f, -0.20489068f, 0.1493547f, -0.11117332f, 0.1842385f, 
		0.1998882f, 0.042989194f, -0.21022907f, -0.10168201f, -0.24311665f, 
		-0.08612284f, -0.23225367f, -0.12005623f, 0.002616763f, 0.10963893f, 
		0.028284699f, -0.30110773f, -0.2852253f, -0.18373331f, 0.28929964f, 
		0.2985218f, -0.19863433f, -0.09042759f, -0.07209492f, -0.10972828f, 
		-0.2600695f, 0.007681906f, 0.0839667f, 0.17254505f, -0.14150217f, 
		-0.21307418f, -0.23847069f, -0.14034131f, -0.28596905f, 0.22828361f, 
		0.14719585f, -0.21494606f, 0.2464334f, -0.022990704f, -0.188714f, 
		0.21880195f, -0.16657229f, -0.16851622f, -0.056352362f, -0.22271799f, 
		-0.2917212f, 0.24175104f, -0.1474001f, -0.13883422f, 0.08698839f, 
		-0.13819006f, 0.14241204f, 0.21769199f, 0.17741191f, 0.19142705f, 
		-0.20447224f, 0.29068157f, -0.26136482f, 0.23226878f, 0.22161707f, 
		0.20643952f, -0.003321588f, 0.23858467f, -0.25760937f, 0.25205496f, 
		-0.30494574f, -0.1602346f, -0.15859538f, -0.114151955f, 0.040943623f, 
		-0.024562687f, -0.03264743f, -0.2867805f, -0.040576816f, -0.15870905f, 
		-0.08720726f, 0.16116121f, 0.08644572f, -0.2455248f, -0.026964277f, 
		0.16580614f, 0.033888936f, -0.033953756f, -0.16368702f, -0.25067666f, 
		-0.19532748f, -0.09415646f, -0.24198763f, 0.17355952f, 0.116583824f, 
		-0.22096029f, 0.03814107f, 0.0050936043f, 0.17524877f, -0.112327605f, 
		0.21170607f, 0.18984556f, 0.076960385f, -0.28677204f, -0.1391044f, 
		0.03839737f, 0.06297532f, 0.058791667f, -0.18513179f, 0.08573797f, 
		-0.25746664f, -0.26610538f, 0.025628865f, 0.19903347f, 0.08821124f, 
		-0.1990067f, -0.24773066f, -0.09875733f, -0.023444682f, -0.13263035f, 
		0.12869921f, 0.018762887f, 0.2007362f, -0.066051126f, -0.11861798f, 
		0.30208215f, -0.15780222f, 0.28922382f, -0.17369655f, 0.044769675f, 
		0.0028020442f, 0.23783585f, -0.1902162f, 0.06144494f, -0.16990563f, 
		0.07068658f, 0.04276836f, 0.24350974f, 0.2609131f, 0.13056362f, 
		0.00082936883f, 0.23230252f, -0.2642922f, 0.19625238f, -0.20586254f, 
		0.20942685f, -0.003534913f, 0.26446602f, -0.30469543f, 0.29021356f, 
		0.13937646f, 0.28164682f, -0.21224636f, 0.10657385f, -0.039205343f, 
		-0.0037314892f, 0.2222037f, 0.13196898f, -0.13482065f, 0.034849763f, 
		0.23611853f, -0.0063179135f, 0.3008689f, 0.18636608f, 0.13272613f, 
		-0.0756347f, -0.2567695f, 0.24558452f, 0.26243976f, 0.091881245f, 
		-0.12665474f, 0.18986917f, -0.22947104f, 0.179243f, -0.2849061f, 
		0.1563904f, 0.08298558f, -0.15999283f, -0.20291471f, 0.029693961f, 
		0.22634032f, -0.09515767f, 0.1385642f, 0.026766509f, 0.23267636f, 
		-0.20021331f, 0.28392723f, -0.2764205f, -0.061480567f, 0.14559641f, 
		0.145365f, 0.08537349f, 0.036394894f, -0.2772603f, 0.108890146f, 
		-0.11288072f, 0.15870261f, 0.16780943f, 0.1286008f, -0.27273455f, 
		-0.089790955f, 0.10301098f, 0.091335356f, 0.08729166f, 0.21867308f, 
		0.26599082f, -0.12837297f, 0.016604632f, -0.03849235f, 0.036414772f, 
		0.1323582f, -0.30399534f, 0.10133636f, 0.2700701f, -0.27754954f, 
		-0.01045388f, -0.21988294f, 0.17921707f, 0.08471298f, -0.22913487f, 
		0.2837871f, -0.093474135f, -0.20318714f, 0.068733305f, 0.015198618f, 
		-0.2648449f, -0.07317233f, 0.00638631f, -0.123728454f, -0.18813626f, 
		-0.28033903f, 0.14134288f, 0.1883468f, 0.00393641f, -0.21841533f, 
		-0.22887659f, -0.07842603f, 0.25015035f, -0.094004184f, -0.18830541f, 
		-0.25992846f, -0.2759338f, 0.1707569f, -0.10443041f, 0.23140708f, 
		0.12680987f, -0.10738371f, -0.120925814f, 0.21616074f, -0.10523173f, 
		0.21443328f, 0.069478065f, 0.23584637f, 0.17071778f, -0.029639572f, 
		-0.18704784f, -0.2899815f, -0.2335493f, -0.30460402f, -0.075925246f, 
		0.0496507f, -0.08454412f, 0.039163947f, 0.19466385f, 0.23163602f, 
		-0.0033270717f, -0.24763452f, -0.099456295f, 0.17131096f, 0.15816301f, 
		-0.25090492f, -0.23066926f, -0.24828728f, -0.20471358f, 0.2711058f, 
		0.15642667f, -0.04231116f, -0.058457106f, 0.07200453f, -0.0696318f, 
		0.27751288f, 0.2825385f, -0.16956969f, 0.12964559f, 0.12707597f, 
		0.2300941f, 0.2781494f, -0.30537885f, 0.22530237f, 0.16835687f, 
		-0.22735067f, 0.30173406f, 0.044677466f, 0.2238904f, 0.22417548f, 
		-0.22604886f, -0.30160296f, -0.22066155f, -0.13027579f, 0.25172117f, 
		0.21939382f, -0.0964113f, 0.10138607f, 0.078719646f, -0.2620215f, 
		0.21883675f, 0.23360983f, -0.10992195f, -0.098045126f, -0.12666066f, 
		-0.138532f, -0.14658658f, 0.13468727f, 0.28940466f, -0.22372693f, 
		0.24215743f, -0.036209762f, 0.24168083f, -0.26805252f, -0.28676525f, 
		-0.06319557f, 0.20873335f, 0.09877178f, 0.25845042f, 0.18548277f, 
		-0.28042677f, -0.14280033f, 0.055397153f, -0.06942186f, 0.045119256f, 
		0.26373085f, -0.06757246f, 0.037501812f, -0.28702053f, 0.1905171f, 
		-0.099301025f, 0.15576288f, 0.045608938f, -0.18540926f, -0.20756067f, 
		-0.053964585f, -0.21414474f, 0.14812812f, 0.26461437f, 0.09004405f, 
		0.11095351f, -0.06607668f, 0.01191923f, 0.26081005f, 0.10000643f, 
		0.13695642f, -0.043313235f, 0.260766f, 0.12864715f, -0.17966346f, 
		-0.24715826f, 0.22609338f, -0.22251147f, 0.22590879f, -0.042350054f, 
		0.23954102f, 0.14807892f, -0.23188247f, -0.24960063f, 0.090887785f, 
		0.2823257f, 0.26467755f, 0.0669145f, -0.07839222f, -0.016339332f, 
		-0.1447696f, 0.12418243f, 0.08335978f, 0.20650211f, 0.032685757f, 
		0.2751793f, 0.2039375f, 0.265103f, -0.07422587f, -0.14653614f, 
		-0.26805055f, 0.026049852f, -0.057305813f, -0.27114248f, -0.21065655f, 
		-0.15686622f, -0.17420317f, 0.0047459006f, 0.098374784f, -0.26602668f, 
		-0.08904301f, 0.1644896f, 0.28239164f, 0.15594867f, -0.06740309f, 
		-0.046711266f, -0.028590798f, 0.18271488f, 0.15109473f, -0.27026802f, 
		-0.20934042f, -0.17695683f, 0.11505994f, 0.13196698f, -0.13272817f, 
		0.021279335f, -0.044097394f, 0.020468086f, -0.19922023f, 0.21393016f, 
		0.29963478f, 0.237748f, -0.17777932f, 0.18824854f, -0.116178304f, 
		0.17692691f, 0.11216518f, -0.09992285f, 0.27067044f, -0.15186635f, 
		-0.08023812f, -0.03624949f, -0.15966418f, -0.09371999f, -0.047770858f, 
		0.25411448f, 0.11921635f, 0.25704208f, -0.26244807f, 0.20703784f, 
		0.30483696f, -0.11509329f, -0.12617528f, 0.18272656f, 0.10013893f, 
		0.047340244f, 0.27229038f, 0.17656037f, -0.18878546f, 0.25303456f, 
		-0.06490335f, 0.06090176f, -0.09108862f, -0.14967516f, -0.19125587f, 
		-0.09565064f, 0.18460742f, -0.04115221f, -0.25240472f, -0.13767512f, 
		0.07105824f, 0.17925358f, 0.09598032f, -0.045933813f, 0.037590504f, 
		-0.14149122f, -0.21575782f, 0.086747795f, -0.014225453f, 0.21807364f, 
		-0.09776524f, 0.20456442f, 0.042219967f, 0.24833909f, -0.22829749f, 
		-0.17391388f, -0.03570971f, 0.24287239f, 0.16578755f, -0.26059055f, 
		0.0759559f, -0.21790141f, 0.219452f, -0.09099729f, 0.2237027f, 
		-0.0192841f, -0.26926476f, -0.19827844f, 0.062434107f, 0.23611334f, 
		0.19678739f, 0.059945226f, 0.24541566f, -0.07285814f, -0.198533f, 
		-0.04698983f, -0.22833106f, 0.11349094f, 0.2221466f, 0.21181169f, 
		-0.04122147f, 0.1461547f, -0.25772545f, 0.0728696f, 0.28675506f, 
		-0.04259336f, -0.27641603f, 0.10126385f, -0.20193204f, 0.2018337f, 
		0.032818913f, 0.15973273f, -0.29948843f, 0.17340675f, 0.06308818f, 
		0.13138846f, 0.20585677f, -0.22887644f, 0.14213392f, -0.18092835f, 
		-0.111964345f, -0.26055595f, -0.17904405f, 0.13835782f, -0.16379674f, 
		0.023846269f, 0.27644786f, -0.21361132f, 0.27530053f, -0.1084304f, 
		0.15875962f, -0.08423124f, 0.09809828f, 0.2518399f, -0.15477723f, 
		-0.042926192f, -0.043462217f, 0.058481574f, -0.052441806f, 0.2133669f, 
		0.03361985f, -0.2645591f, 0.13357264f, -0.26621014f, -0.26180807f, 
		0.018506855f, 0.05276671f, -0.11468573f, 0.17875952f, -0.030970901f, 
		0.26613662f, -0.27636808f, -0.071116775f, 0.07439962f, -0.17199098f, 
		0.22386166f, 0.118257076f, -0.25435522f, -0.17930262f, -0.12818235f, 
		-0.19161233f, 0.17879009f, -0.22575875f, -0.14297992f, 0.10237691f, 
		0.22655556f, -0.26205087f, 0.18062073f, 0.22152117f, -0.25114307f, 
		-0.15737431f, -0.18787354f, -0.08003394f, -0.30610353f, 0.2449924f, 
		0.29731157f, 0.21997026f, 0.1672782f, 0.05273834f, 0.25396445f, 
		0.039576203f, -0.0568292f, 0.13249114f, 0.27305654f, 0.10676584f, 
		-0.10973543f, 0.054484636f, -0.25833836f, -0.15189919f, 0.17980808f, 
		0.3027642f, 0.21677431f, 0.02773282f, -0.29028404f, -0.20715187f, 
		0.29052225f, 0.00665465f, 0.29038087f, 0.07316664f, 0.22650155f, 
		-0.009323388f, -0.040183127f, -0.029848069f, 0.15111408f, -0.22462855f, 
		-0.033289105f, -0.016450077f, -0.04305789f, 0.22470215f, -0.19849037f, 
		0.09354845f, 0.10940021f, 0.1467795f, 0.20786425f, -0.06698488f, 
		0.19188082f, 0.27314052f, 0.058148533f, 0.18550831f, 0.18058437f, 
		-0.0151053965f, -0.10194145f, 0.26344588f, 0.15862012f, 0.047957957f, 
		0.18923405f, 0.06933156f, 0.096714914f, -0.078254044f, 0.19094452f, 
		0.20406541f, 0.0023417175f, 0.09090778f, 0.14508227f, 0.11085838f, 
		0.28376982f, -0.13719398f, -0.16898963f, -0.100965664f, -0.1340537f, 
		0.25342646f, 0.28983858f, 0.21299437f, -0.3055041f, -0.07291266f, 
		0.1592139f, 0.0742504f, 0.18668035f, -0.22754003f, 0.2171146f, 
		0.052717388f, -0.30136877f, 0.037564874f, -0.27706093f, -0.026568174f, 
		0.018708855f, 0.044258147f, -0.10807429f, -0.12517649f, 0.23453501f, 
		0.03971219f, 0.30286697f, 0.25072518f, 0.27322587f, -0.058884606f, 
		0.14043367f, -0.16115448f, -0.20895585f, 0.1452454f, -0.16902035f, 
		0.032808453f, 0.26673034f, -0.07398249f, 0.22869626f, -0.01728499f, 
		-0.13204269f, 0.23020515f, -0.18906468f, -0.099302635f, -0.08862449f, 
		-0.19273195f, 0.09570408f, 0.03998792f, 0.14054564f, 0.034870356f, 
		-0.07070798f, -0.011464715f, 0.017296582f, 0.30176297f, 0.113039345f, 
		-0.26154146f, 0.13734245f, -0.011491507f, -0.119502306f, 0.0882892f, 
		0.13360322f, -0.035642773f, 0.10724363f, 0.017371476f, -0.20681089f, 
		0.23632416f, -0.12965587f, 0.2603753f, -0.297687f, 0.16180223f, 
		0.05885139f, 0.059286535f, -0.005876094f, -0.19524804f, 0.22170988f, 
		0.26402506f, 0.14881828f, -0.11503665f, 0.021574855f, -0.05465451f, 
		-0.18110296f, 0.18960422f, -0.036639392f, -0.042399257f, 0.12859225f, 
		0.12433311f, -0.18297213f, 0.11989096f, 0.2445946f, 0.30485782f, 
		0.121133f, 0.08405545f, 0.13028687f, -0.11995265f, 0.1290006f, 
		-0.22395717f, -0.019124746f, 0.2435197f, -0.22862226f, -0.08490424f, 
		0.16953868f, 0.22197285f, 0.09094685f, -0.18813029f, 0.17815885f, 
		-0.14971407f, 0.02934283f, 0.066645205f, 0.01822713f, 0.085329175f, 
		0.08346203f, -0.27026802f, 0.16580513f, -0.27463862f, -0.13854675f, 
		-0.1631958f, -0.17499734f, 0.2697468f, -0.15915252f, -0.18257472f, 
		0.2723175f, 0.28388903f, -0.2043142f, -0.017594427f, -0.12878205f, 
		-0.019017637f, -0.16582455f, 0.18617174f, -0.18477672f, 0.08819044f, 
		-0.30540046f, 0.21616337f, -0.22631055f, -0.25724006f, 0.20044836f, 
		0.01684326f, -0.077284366f, -0.15016098f, 0.25908008f, -0.19931783f, 
		0.1325334f, -0.18101077f, -0.05079162f, 0.16081014f, -0.042229682f, 
		0.29308084f, -0.040641636f, 0.0742645f, 0.11673385f, -0.015530914f, 
		-0.15406469f, -0.14154269f, -0.027682722f, 0.21462843f, 0.11934981f, 
		-0.09513949f, -0.28648713f, 0.001250267f, -0.138084f, -0.251458f, 
		-0.069242924f, 0.0014052689f, -0.04575014f, 0.059939027f, 0.2066249f, 
		-0.169461f, -0.1512976f, -0.16975613f, 0.08724871f, -0.29868755f, 
		0.07121381f, -0.14839232f, -0.25936088f, -0.27289858f, -0.13190092f, 
		0.13427395f, 0.001514554f, 0.018488914f, -0.29033124f, 0.19372672f, 
		-0.1854178f, 0.0035890639f, -0.15175495f, -0.038850725f, 0.04725504f, 
		0.059549987f, -0.09684019f, -0.008679479f, 0.07443786f, -0.05551681f, 
		0.16019344f, 0.2275131f, -0.016867489f, -0.14256556f, 0.05304143f, 
		0.12866023f, -0.1476918f, 0.13711074f, -0.070669726f, 0.12679002f, 
		-0.0795933f, 0.21682706f, -0.23677014f, -0.26288292f, 0.201188f, 
		-0.036125094f, -0.2895202f, -0.11807792f, 0.20076367f, 0.04771751f, 
		0.14884529f, -0.1857928f, 0.23685715f, -0.18662947f, 0.061101913f, 
		-0.22339645f, 0.16619313f, 0.29563233f, -0.10182823f, 0.22546479f, 
		0.15958425f, -0.1853635f, -0.30417362f, -0.14970422f, 0.29909053f, 
		-0.031992465f, 0.1662662f, -0.2808677f, -0.058790788f, -0.055956542f, 
		-0.0023809075f, 0.06185317f, 0.21541706f, -0.2590796f, -0.14915627f, 
		0.05997938f, 0.068196386f, -0.011424929f, -0.064647764f, 0.16227606f, 
		-0.21598172f, -0.29513168f, -0.16510724f, 0.29530635f, 0.013124913f, 
		-0.28290725f, 0.20844284f, 0.13233855f, 0.046401143f, -0.19749741f, 
		0.2739717f, -0.25523752f, 0.15879634f, -0.1933771f, 0.1986874f, 
		-0.004776567f, 0.042512625f, -0.22811696f, -0.0416227f, -0.25870088f, 
		0.16369781f, -0.08208503f, -0.21464851f, -0.08074328f, 0.24019459f, 
		0.20860794f, -0.14041899f, 0.10671461f, 0.045831025f, -0.019734353f, 
		-0.30345726f, -0.016721994f, -0.20876679f, 0.26075527f, -0.21897605f, 
		0.12850678f, -0.09777619f, 0.2687612f, -0.16134436f, -0.18492936f, 
		0.19450113f, -0.19250059f, 0.034591287f, 0.14310226f, 0.0052355826f, 
		0.056876212f, 0.27724907f, -0.13800515f, -0.017140448f, -0.18790412f, 
		-0.25830513f, 0.0024903417f, -0.21703547f, -0.2711882f, -0.05450186f, 
		-0.11530624f, -0.17234787f, 0.2340993f, -0.09649919f, 0.30005828f, 
		0.15575436f, 0.07167378f, -0.19972874f, -0.13356388f, -0.10474226f, 
		-0.26217878f, 0.07813308f, -0.19261828f, -0.028940886f, -0.12733394f, 
		-0.1502323f, 0.14404434f, -0.23267183f, -0.039821386f, -0.16979007f, 
		-0.091101244f, -0.26012117f, 0.13980812f, -0.090332404f, 0.25095406f, 
		0.26511893f, -0.020949244f, -0.21179637f, -0.19818142f, -0.006401062f, 
		0.09031767f, 0.3010349f, 0.03950399f, 0.1948336f, 0.15582779f, 
		0.1444903f, 0.107645065f, 0.08125377f, 0.025624186f, 0.10708961f, 
		0.25137892f, -0.26380566f, -0.12466994f, -0.25941774f, -0.016772151f, 
		0.08690387f, -0.122099146f, 0.0595465f, 0.10650471f, -0.30584517f, 
		0.085505754f, -0.29205838f, -0.16444403f, -0.25701156f, -0.111758485f, 
		0.22113678f, 0.26541314f, 0.2264742f, 0.2920147f, 0.24198458f, 
		-0.1735347f, -0.046625257f, -0.04181686f, -0.3030494f, -0.09792994f, 
		-0.014919251f, 0.12114057f, 0.13233104f, 0.27437016f, -0.1987414f, 
		0.021356285f, 0.05027771f, -0.23558241f, -0.10086827f, -0.03558123f, 
		-0.23596758f, 0.278119f, -0.25556755f, 0.03186333f, 0.22840992f, 
		-0.006748736f, 0.0042724907f, -0.15536496f, 0.10784808f, 0.2768208f, 
		-0.24066326f, -0.12953477f, -0.25856248f, -0.031697243f, 0.017409593f, 
		-0.19615033f, 0.013825774f, 0.24563482f, 0.1527141f, 0.01631394f, 
		-0.18913491f, 0.06395924f, 0.03335941f, 0.12878957f, -0.25559893f, 
		-0.16311608f, 0.27810827f, 0.26356944f, 0.1804153f, -0.30444956f, 
		-0.0039528906f, 0.00012907386f, -0.21758306f, 0.24467126f, 0.29103687f, 
		0.21274135f, 0.2610936f, -0.16884093f, -0.1511308f, 0.06695795f, 
		0.0011496246f, -0.057189092f, -0.18566015f, -0.0703018f, 0.14573604f, 
		-0.009607524f, 0.07637808f, 0.036984175f, 0.24230704f, -0.065327704f, 
		0.2169204f, -0.15263446f, 0.13573849f, -0.04229188f, -0.25409877f, 
		-0.24764086f, 0.004722178f, -0.008180141f, 0.22922203f, -0.20661423f, 
		0.27415344f, 0.022578388f, -0.13810013f, -0.22836551f, -0.2621405f, 
		0.090450585f, -0.13582595f, 0.2835311f, -0.16196471f, -0.17686236f, 
		0.0875932f, -0.035301f, -0.062362045f, -0.0146686435f, 0.25633392f, 
		0.072728544f, -0.19291101f, -0.20358638f, 0.12624243f, -0.28181085f, 
		-0.040457368f, 0.18485072f, -0.2846161f, 0.28300205f, 0.2832403f, 
		-0.2171003f, 0.28156325f, -0.25404578f, -0.027223706f, 0.07247737f, 
		0.21185508f, -0.2443111f, -0.18530232f, 0.051649094f, -0.032856345f, 
		-0.2925676f, -0.08363432f, -0.118792444f, -0.29180542f, -0.15902433f, 
		0.053919554f, -0.07721451f, 0.034706175f, 0.0074619055f, 0.021589458f, 
		0.2051321f, 0.21231934f, 0.26541063f, -0.17996328f, -0.11715527f, 
		-0.10077067f, 0.19238892f, 0.0979484f, 0.21994266f, 0.01588884f, 
		-0.09734805f, 0.11897898f, 0.05252698f, 0.2899569f, -0.048858345f, 
		-0.27553383f, -0.05316931f, 0.0051649213f, 0.21939525f, -0.0015824437f, 
		-0.13262999f, 0.2709072f, -0.22816616f, -0.08139853f, 0.06015575f, 
		-0.24000187f, -0.17209865f, -0.055095285f, 0.14165255f, -0.13475014f, 
		-0.27276266f, -0.024774462f, 0.25257954f, 0.17873657f, 0.07421368f, 
		0.27670982f, -0.1958311f, -0.054638535f, -0.057474956f, 0.1530739f, 
		0.033537894f, -0.2457503f, 0.20150772f, -0.19156802f, 0.03214088f, 
		-0.27139086f, -0.27281362f, -0.113053516f, 0.054331273f, -0.02748096f, 
		-0.22013938f, -0.046821475f, 0.025475502f, 0.26965752f, -0.26502585f, 
		0.17566231f, -0.102084905f, 0.12555507f, 0.076352805f, -0.036616832f, 
		-0.1829809f, -0.24692903f, -0.0058017075f, 0.12572187f, 0.092678726f, 
		-0.27663416f, -0.26913542f, 0.18280286f, -0.067624584f, 0.305517f, 
		0.20470306f, -0.17081077f, 0.11514053f, 0.16872099f, -0.23551205f, 
		0.118842095f, 0.13824666f, -0.12369129f, -0.26974177f, 0.287793f, 
		0.049434483f, 0.18738559f, -0.10388875f, 0.22298095f, 0.123194754f, 
		-0.0016928017f, -0.30369347f, -0.20068389f, -0.17620638f, 0.25593647f, 
		-0.1523864f, 0.15804648f, 0.28829262f, -0.23842937f, 0.23819688f, 
		0.15189466f, 0.26451936f, 0.23258767f, -0.2945322f, 0.066746384f, 
		0.20238885f, -0.12288734f, 0.24037227f, -0.2915533f, -0.1822049f, 
		0.18451178f, -0.11730382f, 0.30424282f, -0.16585849f, -0.0073104203f, 
		-0.055073768f, -0.2183489f, 0.279286f, -0.23811409f, -0.058858752f, 
		-0.21532801f, -0.11121464f, -0.1567711f, 0.1680977f, -0.01027891f, 
		-0.30563647f, 0.0884701f, -0.21648183f, -0.27398288f, -0.2928183f, 
		-0.2190046f, -0.049867302f, 0.24231973f, 0.018805057f, -0.24807937f, 
		0.13681862f, -0.048713893f, 0.21331379f, 0.21767125f, -0.09196171f, 
		0.28039816f, 0.21419278f, 0.26842037f, 0.1436364f, -0.2552465f, 
		-0.03341511f, 0.22626534f, -0.110850066f, 0.03878668f, 0.21887246f, 
		0.16279751f, 0.038743854f, -0.23479299f, -0.26066962f, -0.0109888315f, 
		-0.044841558f, -0.078927025f, -0.19244877f, 0.025230646f, -0.22071974f, 
		-0.11884311f, 0.15740225f, 0.19783774f, 0.15326256f, 0.16565043f, 
		-0.093286306f, 0.06496677f, 0.06520367f, -0.22467695f, -0.120863765f, 
		-0.1722583f, -0.16833869f, -0.26795435f, -0.21095075f, -0.087962f, 
		-0.0683105f, 0.054247826f, 0.19382879f, 0.15079704f, -0.07030253f, 
		0.18637687f, 0.27563402f, -0.2285327f, 0.30589744f, -0.18162805f, 
		0.002327472f, -0.13514477f, 0.110073626f, 0.1528571f, 0.08004168f, 
		-0.18453604f, 0.09116739f, -0.047566324f, -0.17603914f, -0.043271124f, 
		-0.25672922f, 0.22410396f, -0.18815276f, 0.1353032f, -0.30606526f, 
		0.16518179f, -0.035430282f, -0.042812526f, 0.096419126f, -0.22584532f, 
		-0.22121118f, -0.23801625f, 0.19860306f, -0.021430105f, 0.095782995f, 
		0.3001834f, -0.16360329f, -0.06147714f, 0.25968054f, -0.13104376f, 
		-0.11056727f, -0.27847612f, -0.13527115f, 0.27195957f, 0.001301229f, 
		0.21784475f, -0.25783777f, -0.2170952f, 0.21921954f, -0.091502964f, 
		0.28121033f, 0.30220184f, 0.2670305f, -0.20905834f, 0.25296423f, 
		-0.17352362f, -0.016507804f, 0.08598107f, 0.046330333f, 0.18718076f, 
		-0.23650727f, -0.111915365f, -0.03239572f, -0.16502811f, -0.014078081f, 
		0.14120075f, 0.13846645f, 0.22031012f, -0.22037752f, 0.046221584f, 
		-0.059845507f, -0.22890003f, 0.2278665f, -0.19216932f, 0.17528579f, 
		0.15428594f, -0.14177161f, 0.2920651f, 0.073667556f, 0.0029736161f, 
		0.10010433f, 0.17971253f, -0.30234903f, -0.22766946f, 0.25595328f, 
		0.2521471f, -0.25361156f, -0.20097771f, -0.16240834f, -0.0064728856f, 
		-0.1508017f, -0.19870746f, -0.24410823f, -0.08561081f, -0.06582753f, 
		-0.16045725f, 0.26404306f, 0.22494265f, -0.25501698f, -0.031865f, 
		-0.2123152f, 0.20143381f, -0.04502961f, -0.11603084f, -0.2993754f, 
		-0.10714267f, -0.21988885f, -0.09767501f, -0.068568334f, 0.2885488f, 
		-0.1770983f, 0.110170364f, -0.11631569f, -0.16300891f, 0.106998354f, 
		-0.00907439f, 0.15229288f, -0.3007979f, 0.018506438f, 0.17691165f, 
		-0.18485308f, -0.19355056f, 0.11947879f, -0.029618919f, 0.049685746f, 
		-0.21041325f, -0.26845324f, 0.25684127f, -0.24799104f, 0.19816223f, 
		-0.14504117f, 0.3000621f, -0.1006508f, 0.15644267f, 0.012240052f, 
		0.071033865f, 0.1643011f, 0.22206506f, 0.13054392f, 0.22276846f, 
		0.07480395f, -0.11501752f, -0.23375127f, -0.25258905f, 0.097714156f, 
		-0.18897964f, 0.15155652f, -0.114431694f, -0.16128144f, 0.14733037f, 
		-0.17980509f, 0.028434485f, 0.16462639f, -0.030453324f, -0.12374239f, 
		0.18803364f, 0.2442151f, -0.13995646f, 0.19925031f, 0.10882014f, 
		0.1066142f, 0.13026738f, -0.29107767f, -0.14781846f, -0.23264307f, 
		-0.2890431f, -0.29974234f, -0.20417316f, -0.044315517f, 0.082748085f, 
		0.24479821f, -0.2994369f, 0.22238371f, -0.0099668205f, 0.023408562f, 
		0.014105141f, -0.24147284f, -0.021943659f, 0.24870244f, 0.24368039f, 
		-0.269673f, -0.08727026f, -0.21347234f, -0.08659245f, -0.27814996f, 
		0.2278668f, 0.1343241f, 0.2997689f, 0.01620245f, 0.041367054f, 
		0.045614064f, -0.0026443005f, -0.04051563f, 0.29177263f, 0.29918614f, 
		-0.06297657f, -0.08071868f, -0.19230598f, 0.05260414f, 0.24767146f, 
		0.1574195f, -0.034113705f, 0.24673042f, 0.011257559f, -0.24358408f, 
		0.10855448f, -0.22917677f, -0.20664772f, -0.24554108f, -0.17086303f, 
		-0.2506128f, -0.03988257f, 0.28197095f, 0.27280423f, 0.10568535f, 
		0.0630838f, 0.14408639f, 0.21605876f, 0.12513328f, -0.054081738f, 
		-0.12313992f, -0.24109067f, 0.20716694f, -0.05321479f, 0.013588667f, 
		0.11444375f, -0.19391666f, -0.17421442f, 0.18394807f, 0.22092208f, 
		0.14745179f, -0.22052768f, 0.06456134f, -0.19779153f, -0.21900043f, 
		0.03431359f, 0.20707801f, -0.06801447f, -0.11466923f, 0.2894046f, 
		0.11707088f, 0.116949975f, 0.16575512f, -0.14582548f, -0.17178671f, 
		-0.18554023f, 0.027658433f, -0.1825943f, -0.01753071f, 0.06862402f, 
		-0.02805379f, 0.24618056f, 0.0060551763f, 0.078935266f, -0.04495004f, 
		-0.100191996f, 0.168145f, -0.16586448f, -0.098890916f, 0.22679797f, 
		-0.0019036233f, 0.13310009f, -0.103130996f, 0.0348216f, -0.11818743f, 
		0.27965447f, -0.05072871f, -0.21508907f, -0.015741974f, -0.109384954f, 
		-0.038531274f, 0.022749573f, 0.13457069f, -0.08378427f, -0.22409266f, 
		0.2900209f, 0.041365147f, 0.24612996f, -0.2215637f, -0.2885005f, 
		-0.114810705f, 0.18147248f, -0.026845336f, -0.12588058f, -0.25607482f, 
		0.01888895f, -0.0868651f, 0.06955925f, 0.105068505f, 0.08778322f, 
		-0.19487444f, 0.22255507f, 0.0029147565f, 0.08661616f, 0.14174622f, 
		0.0076676905f, -0.07231574f, -0.23129606f, -0.049846858f, 0.036685437f, 
		-0.2630455f, 0.001959622f, 0.008808523f, 0.2434999f, -0.0729188f, 
		-0.17177832f, -0.053379625f, 0.1453647f, -0.046832293f, 0.29131076f, 
		-0.11772956f, 0.014623225f, -0.23894066f, 0.17365101f, -0.07195388f, 
		-0.053402424f, 0.095570326f, 0.06985992f, -0.06569986f, -0.006646186f, 
		-0.09740338f, 0.17700791f, 0.10429096f, 0.25731853f, -0.07191943f, 
		-0.25740847f, 0.11868748f, 0.24301979f, -0.045003563f, -0.18565813f, 
		-0.21464282f, -0.016558558f, 0.21203169f, -0.053996474f, -0.14899771f, 
		0.16546246f, 0.094958514f, 0.18388414f, 0.19311053f, -0.13542634f, 
		-0.2797137f, 0.2704188f, 0.16549802f, 0.20611343f, 0.02392131f, 
		0.095501274f, 0.19475165f, -0.0115971565f, -0.079175234f, -0.048743814f, 
		0.18564096f, -0.26500228f, 0.25656465f, -0.22353376f, -0.023034781f, 
		0.08735931f, 0.24156907f, 0.04618311f, 0.20113662f, 0.021534353f, 
		0.23374674f, 0.2577609f, 0.12120256f, -0.2807273f, 0.06287575f, 
		-0.11936331f, -0.19161518f, 0.2853916f, 0.07969499f, 0.19921729f, 
		0.18027535f, 0.26403072f, 0.10047531f, -0.2301138f, -0.2149408f, 
		0.21832189f, -0.12806724f, -0.006381035f, 0.21305671f, -0.22250037f, 
		0.22462812f, -0.28614473f, -0.13707286f, -0.10168558f, -0.07174663f, 
		0.27384958f, -0.04702407f, -0.19988073f, -0.024144828f, -0.12710428f, 
		-0.21779132f, -0.05602634f, 0.21686754f, 0.046969235f, -0.07973434f, 
		0.26620683f, 0.19044402f, -0.26454383f, -0.021619886f, -0.24363248f, 
		0.13049224f, -0.0071567595f, 0.14025956f, -0.09906465f, -0.18996516f, 
		-0.023354888f, -0.30305648f, -0.0068640113f, 0.0038454533f, 0.058530033f, 
		-0.17612477f, -0.14123273f, 0.20917878f, -0.18153563f, -0.23483023f, 
		0.1210624f, -0.2945942f, -0.25835478f, -0.07548761f, 0.22763011f, 
		-0.17975114f, 0.011236101f, -0.044805348f, -0.22840267f, 0.11017218f, 
		0.030429244f, -0.12864664f, 0.07166189f, 0.24779108f, 0.13448477f, 
		-0.113797605f, 0.22876886f, 0.012403727f, 0.20268115f, -0.024928063f, 
		-0.20359522f, -0.1853256f, -0.049967676f, -0.21302119f, -0.117424935f, 
		0.11873528f, 0.19476107f, -0.24620238f, 0.16519997f, -0.09567568f, 
		-0.015311182f, 0.07815418f, -0.029010832f, -0.024290025f, -0.17107606f, 
		-0.2629901f, 0.03744459f, -0.064196914f, 0.15218017f, -0.1116492f, 
		-0.27793613f, 0.12033647f, -0.2593713f, -0.13152453f, 0.2636551f, 
		0.2348217f, -0.2093924f, -0.05355373f, 0.1967378f, -0.01518929f, 
		0.30502954f, -0.29518497f, -0.013273835f, -0.02160728f, -0.20694295f, 
		-0.28379026f, -0.29014635f, 0.14072144f, 0.22404793f, 0.25045553f, 
		-0.19564867f, -0.20547935f, 0.1589947f, -0.21103448f, -0.27755493f, 
		0.1261777f, -0.22658512f, -0.27517527f, 0.019163936f, -0.1994076f, 
		0.17363706f, 0.29631117f, -0.18179165f, 0.16466069f, -0.19577102f, 
		-0.12138696f, 0.0059788227f, 0.13139904f, -0.2412082f, -0.10881029f, 
		-0.17297173f, -0.27834705f, -0.091023f, 0.2661259f, -0.22428742f, 
		-0.1777602f, -0.028059483f, 0.07273191f, -0.22431502f, -0.20309852f, 
		-0.23975316f, 0.07139799f, -0.2739609f, -0.181559f, 0.017832935f, 
		0.04438591f, -0.17068376f, -0.13145284f, 0.12222755f, -0.12257621f, 
		-0.21053472f, 0.28584954f, -0.2421675f, 0.013166875f, 0.1265673f, 
		-0.09343813f, -0.14665017f, -0.055300355f, -0.19956866f, 0.095677644f, 
		-0.25917903f, -0.017517269f, 0.044194788f, -0.13834117f, -0.16346656f, 
		-0.15562893f, -0.0867129f, 0.05433944f, -0.18505886f, 0.28317484f, 
		-0.21180551f, -0.28245538f, 0.19044906f, 0.007746607f, -0.26356292f, 
		0.08853492f, -0.06184864f, -0.1135367f, -0.02821812f, -0.023462355f, 
		-0.03339547f, -0.24904451f, 0.20043668f, 0.26473066f, -0.09054695f, 
		0.12126908f, 0.026827306f, 0.007984936f, -0.24900459f, -0.18501316f, 
		-0.24919015f, 0.11597785f, -0.07299931f, -2.592802e-05f, -0.14260396f, 
		0.1357533f, 0.18934852f, 0.21713892f, -0.1499949f, -0.28431368f, 
		-0.26201284f, 0.2697927f, -0.18622f, 0.19835821f, -0.1224186f, 
		-0.29112813f, -0.12536986f, -0.17492895f, 0.26277968f, -0.23592508f, 
		-0.19263616f, 0.04088947f, -0.24613275f, 0.24021849f, -0.28145045f, 
		-0.029012084f, -0.121922195f, -0.06219378f, -0.019921094f, -0.077547684f, 
		-0.2961867f, -0.09415741f, -0.106230155f, -0.09332076f, 0.2746221f, 
		0.1374583f, -0.18435746f, -0.22865234f, 0.1545383f, 0.15571126f, 
		0.24050662f, -0.24661492f, -0.20507129f, 0.18346846f, -0.25951687f, 
		-0.23914507f, 0.1557715f, -0.2856487f, -0.2521133f, -0.16624269f, 
		0.13047028f, 0.14979574f, 0.027503818f, 0.1895484f, -0.29178914f, 
		-0.13073482f, -0.09721796f, -0.2728818f, 0.14422837f, -0.26862857f, 
		-0.08998981f, 0.14394557f, -0.02072528f, -0.3035379f, -0.23054224f, 
		-0.03910169f, 0.20001623f, -0.038770765f, 0.08437505f, -0.2195702f, 
		-0.018618107f, -0.102615684f, -0.21613649f, -0.033208877f, -0.25649026f, 
		0.22476706f, -0.0431284f, 0.034879714f, -0.09094642f, -0.2992988f, 
		-0.009875208f, 0.049595058f, 0.20448759f, -0.094844416f, 0.05850354f, 
		-0.24701218f, -0.11041571f, 0.3015664f, 0.1948205f, -0.13724485f, 
		-0.16985199f, 0.18960723f, 0.017799139f, 0.17500982f, 0.16443637f, 
		0.23111793f, -0.13857362f, 0.24012735f, -0.27960718f, 0.19497976f, 
		-0.22152019f, -0.104624376f, 0.04576364f, -0.2601683f, -0.02753082f, 
		-0.10628477f, -0.18542065f, -0.25561112f, -0.024177969f, -0.19081429f, 
		-0.11392039f, 0.047019035f, -0.12111314f, 0.033699006f, 0.17245606f, 
		-0.09467162f, -0.1440839f, 0.116803765f, 0.17680076f, -0.24420589f, 
		0.12562609f, -0.17031138f, 0.20643815f, -0.25507006f, 0.046616435f, 
		0.10595459f, 0.27675727f, -0.20860547f, -0.03188339f, -0.29820246f, 
		0.07491267f, -0.2579321f, 0.23817661f, 0.28699425f, -0.22291997f, 
		0.10217023f, -0.19841138f, -0.24728228f, 0.06579396f, -0.22628617f, 
		0.10258722f, -0.03552699f, 0.27685782f, -0.11122806f, 0.13927513f, 
		0.18416971f, 0.21461901f, 0.050136656f, 0.2290645f, 0.06209719f, 
		-0.20163661f, -0.11043586f, 0.049692303f, -0.29668668f, 0.23541114f, 
		0.014997065f, -0.22456029f, 0.27348903f, 0.13283256f, 0.049517334f, 
		0.048089206f, -0.02734977f, -0.18245193f, 0.09053156f, -0.1823025f, 
		0.21766993f, 0.12632728f, 0.16788322f, -0.0044237673f, -0.30065256f, 
		-0.1215937f, -0.043408573f, -0.24224904f, 0.15170684f, -0.21017826f, 
		0.15667021f, 0.20167837f, -0.29039857f, -0.17570458f, 0.24841532f, 
		0.23393258f, 0.057061493f, 0.19433907f, 0.13415644f, 0.004906863f, 
		0.20791784f, 0.049786925f, 0.2815883f, 0.2439445f, -0.030567497f, 
		-0.20431244f, -0.18237981f, 0.24274924f, 0.2224581f, -0.14961392f, 
		0.1358572f, 0.19568637f, -0.026027381f, -0.13992836f, 0.13459903f, 
		-0.28881145f, -0.056019396f, -0.2578156f, 0.2678515f, 0.023777574f, 
		0.305752f, 0.2233999f, 0.044388443f, 0.3001084f, 0.064279854f, 
		-0.16739011f, 0.2741752f, -0.06601164f, 0.24237671f, -0.21722886f, 
		-0.009626418f, 0.16911212f, -0.024858564f, 0.12654036f, 0.16519704f, 
		-0.08787222f, -0.11867784f, 0.2950869f, 0.10792634f, 0.20164338f, 
		0.27550474f, -0.083731264f, 0.048996836f, -0.08317216f, -0.060310453f, 
		-0.11921199f, -0.12249985f, 0.11979321f, -0.29207093f, 0.24352589f, 
		-0.24878667f, -0.25147498f, -0.08420336f, 0.27143553f, 0.1809547f, 
		-0.26660004f, 0.29136363f, -0.06820537f, 0.22071311f, 0.26793852f, 
		-0.11814983f, -0.018640667f, -0.13661596f, -0.14069873f, -0.127333f, 
		-0.1766779f, 0.06278378f, 0.113456845f, -0.2059954f, 0.17344674f, 
		0.26669535f, -0.22797686f, 0.03754115f, 0.11681327f, -0.030944765f, 
		0.12182942f, -0.08390099f, 0.24842414f, -0.22442634f, -0.29542494f, 
		0.3040718f, 0.19044366f, -0.13880567f, -0.2526211f, -0.20313123f, 
		0.22197351f, 0.08470407f, 0.16730121f, 0.13899174f, -0.07002629f, 
		0.2438769f, -0.06513709f, 0.13573542f, -0.22165641f, 0.14623648f, 
		0.23987117f, 0.05464533f, 0.13814276f, -0.061430424f, -0.20164384f, 
		-0.2411825f, 0.19592777f, 0.09951705f, 0.20804664f, 0.2539738f, 
		-0.06328967f, -0.09288633f, 0.034730703f, -0.21285087f, -0.042276055f, 
		0.24749216f, 0.23809275f, -0.07081689f, -0.15186788f, -0.22225145f, 
		0.20857587f, -0.2580086f, -0.18219236f, 0.11831927f, 0.051526517f, 
		-0.18263648f, -0.02552697f, 0.2563379f, 0.054560125f, 0.018896312f, 
		-0.070196316f, 0.26366898f, -0.11035469f, 0.22004858f, 0.29385945f, 
		0.09167233f, -0.046886325f, 0.14601186f, -0.08770263f, 0.074406266f, 
		-0.21114755f, 0.07444042f, -0.12766106f, -0.25900084f, 0.20270678f, 
		0.23433504f, -0.29366562f, -0.2788117f, 0.11195436f, 0.2819033f, 
		0.04931739f, 0.16869092f, 0.054894835f, 0.033886522f, 0.24399778f, 
		0.26239976f, 0.043714732f, -0.0986906f, -0.052122205f, 0.024454147f, 
		0.22815117f, -0.24098277f, -0.23124465f, -0.018193036f, 0.30108795f, 
		0.20069084f, -0.13221724f, -0.17320475f, 0.22552809f, -0.031813174f, 
		0.242672f, -0.20063892f, -0.040251732f, 0.23944005f, 0.26651618f, 
		-0.20108604f, -0.22989255f, -0.19054106f, -0.09903662f, -0.21403605f, 
		-0.2331467f, 0.018922597f, -0.29517877f, 0.26083323f, -0.19842167f, 
		-0.17277405f, -0.094217494f, 0.18363169f, 0.1055522f, 0.20633957f, 
		0.24379852f, 0.27152625f, -0.009114474f, -0.24312776f, -0.28961074f, 
		0.2295008f, -0.054433554f, 0.1774168f, -0.30213478f, -0.1308395f, 
		-0.13241689f, -0.21608442f, -0.03489846f, 0.028504282f, -0.07759324f, 
		-0.027431607f, -0.17872913f, 0.20031968f, -0.12237188f, 0.29253528f, 
		0.057812214f, 0.0053931177f, -0.18029134f, 0.18016762f, -0.11416736f, 
		0.298444f, 0.181227f, -0.034585357f, 0.25462195f, -0.26919454f, 
		-0.017150879f, -0.288004f, 0.07122716f, -0.13316888f, -0.1843901f, 
		0.23965713f, 0.11033118f, 0.1572183f, -0.2749615f, -0.23289812f, 
		-0.23119766f, -0.10757716f, 0.10852975f, 0.28749582f, -0.304328f, 
		0.2977949f, -0.2170695f, -0.011515886f, -0.24550435f, -0.12870555f, 
		0.2501985f, 0.24770519f, 0.1463651f, -0.21674983f, -0.0429067f, 
		-0.24588199f, 0.14526051f, 0.15081191f, 0.19410929f, 0.058125675f, 
		-0.21264589f, 0.24979445f, 0.0027106404f, 0.2441217f, 0.17955878f, 
		0.18634942f, 0.27207032f, -0.026571602f, -0.13024375f, -0.24374424f, 
		-0.2707407f, 0.011658967f, -0.006252408f, 0.29613557f, -0.13845061f, 
		0.1186344f, 0.108834445f, 0.27420518f, -0.21430139f, 0.26318452f, 
		0.19382247f, 0.20114568f, 0.03323683f, 0.102137685f, 0.2417824f, 
		-0.13366564f, 0.15458277f, 0.23954514f, -0.2963221f, 0.0059112012f, 
		0.23829451f, 0.08464843f, -0.1596038f, -0.23154381f, -0.20451407f, 
		-0.04795447f, -0.25708115f, -0.24659082f, -0.114322335f, 0.03185779f, 
		0.23731795f, 0.13293263f, 0.1477643f, -0.05908893f, -0.15896827f, 
		-0.2165747f, -0.018219829f, -0.009391665f, 0.28570858f, 0.10991952f, 
		0.23299631f, -0.27900383f, 0.22979501f, -0.016924351f, 0.12479529f, 
		-0.2755961f, 0.17904156f, 0.11679369f, -0.26557636f, 0.22509459f, 
		-0.021327823f, 0.28181687f, 0.16167885f, 0.16155651f, -0.16921322f, 
		-0.30366224f, -0.035945863f, 0.16507351f, 0.12105641f, -0.18831497f, 
		0.15741855f, 0.19306761f, -0.16005014f, -0.15615402f, 0.1470178f, 
		-0.020187348f, -0.26999223f, 0.14694962f, -0.26347715f, 0.24877426f, 
		0.10578376f, 0.2770944f, 0.12006089f, 0.21301273f, -0.14006071f, 
		0.026974052f, -0.046555758f, 0.056159347f, -0.19247447f, -0.29383272f, 
		0.24885032f, -0.14551821f, -0.042999983f, -0.1385531f, -0.20824929f, 
		-0.28400525f, -0.034413874f, 0.009696066f, 0.01999119f, 0.14394587f, 
		0.2648227f, 0.24946925f, 0.10962227f, 0.069491416f, -0.26396376f, 
		-0.21551284f, -0.14793782f, 0.15768668f, 0.07658285f, 0.00012665987f, 
		-0.23819065f, 0.17784005f, 0.1733501f, 0.043001145f, -0.11137596f, 
		0.29467604f, 0.05933851f, -0.06865901f, -0.2566433f, 0.19689623f, 
		-0.21882297f, -0.09963639f, -0.1688502f, 0.2444574f, 0.049351186f, 
		-0.04343778f, 0.08661237f, -0.006672889f, 0.2759634f, -0.19180775f, 
		0.26007387f, -0.08394377f, 0.20968613f, -0.080386385f, 0.24716619f, 
		0.2641169f, -0.13838848f, -0.0667139f, -0.2335211f, 0.27069303f, 
		0.04151714f, 0.093275785f, 0.04914248f, 0.19586357f, -0.19794673f, 
		-0.03590426f, 0.10598561f, 0.2695559f, 0.14562955f, -0.09660746f, 
		0.14881054f, 0.05812344f, 0.092656314f, 0.17025313f, -0.22302401f, 
		0.29620686f, -0.020967484f, -0.20173845f, -0.107686594f, 0.2467688f, 
		0.26892862f, -0.15078966f, 0.21879742f, 0.22557208f, -0.2823509f, 
		-0.13921462f, 0.06713483f, 0.21721497f, 0.059130102f, 0.116401315f, 
		0.26315078f, -0.18400764f, 0.19976607f, 0.065193444f, 0.07621455f, 
		0.2125856f, 0.14862892f, 0.24312374f, 0.0926401f, 0.09395221f, 
		-0.22451212f, 0.17675054f, -0.05838929f, 0.021366596f, -0.061446846f, 
		0.12733921f, -0.22546916f, -0.088514045f, 0.1730532f, -0.12035006f, 
		-0.022882223f, -0.07195833f, -0.06654768f, 0.15195802f, 0.025840938f, 
		-0.039672345f, 0.20364067f, 0.20818964f, -0.06832619f, -0.119003564f, 
		0.2625887f, 0.2372773f, -0.08032952f, 0.038537025f, -0.20508465f, 
		-0.040537834f, -0.22374314f, -0.26625f, -0.034875184f, 0.085194856f, 
		-0.15989785f, -0.0061841607f, -0.23790494f, -0.0001322031f, 0.015837312f, 
		0.26497772f, -0.18414737f, 0.2842609f, -0.024256885f, -0.032227606f, 
		0.19597462f, 0.08030602f, -0.10990319f, 0.29164365f, 0.29163358f, 
		-0.02320233f, 0.016613752f, -0.031484514f, -0.028279006f, 0.12451285f, 
		0.2805334f, 0.15516502f, -0.27229524f, 0.12453139f, 0.19345582f, 
		-0.04063645f, 0.1432122f, -0.30302787f, 0.07937649f, -0.14752106f, 
		0.2816058f, 0.103869766f, 0.14414406f, -0.096285746f, 0.15567747f, 
		-0.2148327f, 0.22782984f, -0.16097052f, -0.28212395f, -0.013824016f, 
		-0.087835506f, 0.045757502f, 0.14264104f, -0.11630285f, -0.30037627f, 
		0.055763304f, -0.22623223f, 0.042265296f, 0.023049682f, 0.29684946f, 
		-0.13569959f, 0.17524269f, 0.20229301f, 0.080394626f, -0.026293308f, 
		0.124246895f, 0.25840166f, -0.122827694f, -0.27326855f, -0.18148592f, 
		0.060858756f, 0.10971266f, -0.23890278f, 0.2680637f, 0.09930518f, 
		-0.12174524f, 0.08222535f, -0.1378596f, 0.26586655f, 0.23267248f, 
		0.015127808f, -0.116480306f, -0.020341665f, 0.060847074f, -0.06695305f, 
		-0.25725314f, 0.08207488f, 0.17439267f, -0.053592205f, -0.26105937f, 
		-0.262369f, -0.29598033f, -0.10221447f, -0.09152743f, 0.15821096f, 
		0.0636349f, -0.13977322f, 0.10683292f, -0.17167692f, -0.23691672f, 
		-0.24547362f, 0.13177639f, 0.04290384f, 0.30209574f, -0.19367044f, 
		0.13772798f, 0.2484586f, 0.15043342f, -0.16287299f, -0.23786996f, 
		0.053542137f, -0.12066163f, -0.15711924f, -0.19833218f, -0.25466892f, 
		-0.29230878f, -0.23247743f, 0.22529343f, -0.16239673f, -0.013158202f, 
		-0.22007748f, 0.22095427f, 0.12198001f, -0.24620144f, 0.064068735f, 
		0.23577324f, 0.0821203f, 0.11635512f, -0.02261746f, -0.12348893f, 
		0.06861979f, -0.04050234f, 0.060049772f, 0.23392823f, -0.022292018f, 
		0.17904764f, 0.18819138f, -0.025740266f, -0.15737583f, 0.2966179f, 
		-0.17976114f, 0.09408617f, -0.011895001f, 0.14696917f, 0.10029018f, 
		0.03405392f, -0.068432406f, 0.26023957f, 0.10346988f, 0.021984011f, 
		-0.2843258f, -0.13066357f, -0.13676728f, -0.14496925f, 0.112044424f, 
		0.17522809f, 0.050686806f, 0.23701885f, -0.23719049f, -0.16735938f, 
		-0.07568902f, -0.25243232f, -0.20875219f, 0.24024841f, 0.080148995f, 
		0.09847978f, 0.07298291f, -0.30294105f, -0.12889199f, 0.17981225f, 
		-0.19177657f, 0.23924312f, -0.056029707f, 0.07451138f, -0.21396092f, 
		-0.08458479f, 0.24458054f, 0.1966441f, -0.2730889f, -0.19010866f, 
		0.034169495f, 0.055103183f, 0.25577906f, 0.048932433f, 0.13050136f, 
		-0.30098274f, 0.30019042f, 0.12130031f, -0.08662099f, -0.28134847f, 
		0.18097228f, 0.24052504f, -0.13154775f, -0.089232504f, 0.15111297f, 
		0.19746163f, 0.11544216f, 0.10465124f, 0.16772145f, -0.2708461f, 
		0.014902532f, 0.15275958f, 0.011969596f, 0.21141401f, -0.29261485f, 
		-0.28553513f, 0.13120055f, 0.16332677f, -0.22747733f, 0.1177865f, 
		-0.12832427f, 0.15072161f, 0.10174975f, 0.075956136f, -0.22962523f, 
		0.2709166f, 0.14051637f, 0.2719774f, 0.060076833f, -0.05727063f, 
		-0.1831618f, 0.15920281f, 0.049666166f, 0.034273297f, -0.21547765f, 
		0.062299788f, -0.19663644f, -0.23828739f, 0.023643404f, -0.063691095f, 
		0.032714278f, 0.25405052f, 0.26612303f, 0.0012221634f, 0.1747517f, 
		-0.19304015f, -0.1514676f, 0.04795775f, -0.29717103f, -0.25584012f, 
		-0.27588257f, 0.13345015f, 0.26471654f, -0.053299993f, -0.21235222f, 
		0.17923766f, 0.17925021f, 0.1900804f, -0.29079044f, 0.18001634f, 
		0.2454032f, -0.16895737f, -0.029766172f, 0.29907915f, 0.082395285f, 
		-0.18972191f, 0.29854646f, 0.20177457f, -0.2277318f, -0.30501968f, 
		0.18996039f, -0.15292375f, -0.045744956f, -0.19511381f, 0.23073146f, 
		-0.2202053f, 0.2784504f, 0.1630384f, -0.23984806f, 0.26373157f, 
		-0.026692778f, 0.048153967f, -0.29792118f, -0.23365214f, -0.0923789f, 
		-0.117260754f, -0.18168873f, -0.12504436f, 0.15884197f, 0.032188118f, 
		0.093915194f, 0.11668858f, -0.16638869f, -0.26386178f, 0.2329944f, 
		-0.031182826f, -0.15338154f, 0.17729023f, 0.19115359f, -0.16466084f, 
		0.23590884f, 0.23339203f, -0.0019391775f, -0.16926396f, -0.15649268f, 
		-0.15534766f, -0.19186243f, -0.027886838f, 0.047937155f, -0.24473208f, 
		-0.16319697f, -0.059854925f, -0.25223842f, -0.20099887f, -0.14565013f, 
		-0.1643722f, 0.15858808f, 0.056038976f, -0.18422768f, -0.21598369f, 
		-0.027662367f, -0.0327335f, -0.009433061f, -0.18813415f, 0.30604234f, 
		-0.15964958f, -0.12424682f, -0.1372915f, -0.24783424f, 0.2810317f, 
		0.20137468f, 0.169956f, -0.03077197f, -0.16411772f, -0.1539162f, 
		0.0043284893f, -0.19939965f, -0.06947814f, -0.3040979f, -0.18757087f, 
		-0.019702673f, 0.24246612f, 0.26170763f, 0.02004835f, 0.20067963f, 
		-0.12024085f, 0.25494996f, 0.03464237f, 0.05201298f, 0.023533523f, 
		-0.04474047f, 0.092018366f, -0.04873535f, -0.004174739f, 0.22393784f, 
		-0.07202892f, -0.036083996f, 0.26678875f, 0.29347625f, -0.08257465f, 
		-0.22053118f, -0.067025244f, 0.1165458f, 0.29676732f, 0.24964109f, 
		0.17399132f, -0.1394724f, -0.16973029f, 0.30374947f, -0.25105676f, 
		-0.056031674f, -0.23375675f, -0.29926082f, -0.118470594f, -0.08144511f, 
		-0.24332237f, -0.21697f, -0.25232217f, -0.14950413f, 0.109956264f, 
		0.09777027f, 0.1884298f, -0.19335121f, -0.1137141f, -0.16126859f, 
		-0.22440794f, -0.057388455f, 0.18379954f, -0.07284762f, -0.19497576f, 
		0.15420061f, -0.12688448f, -0.08047669f, -0.2153477f, -0.029640824f, 
		-0.097706914f, 0.2980273f, 0.120458454f, -0.059510067f, 0.20175144f, 
		-0.043569177f, 0.2413136f, -0.1018967f, -0.18326458f, 0.2386283f, 
		0.048350543f, -0.16054478f, -0.2800933f, -0.2911923f, -0.29362628f, 
		0.13836432f, 0.07643041f, -0.027313203f, -0.08507024f, -0.12746556f, 
		-0.14219743f, 0.10512215f, -0.2329861f, -0.031418175f, -0.09170109f, 
		-0.28354162f, -0.0392693f, -0.051601857f, 0.024018109f, 0.24596468f, 
		0.111129016f, -0.0054148734f, 0.02818051f, -0.12230757f, 0.07661736f, 
		0.09623158f, 0.16200209f, -0.30157244f, 0.18229112f, -0.22467798f, 
		-0.27750567f, -0.2175332f, -0.24399558f, 0.14142814f, 0.099003196f, 
		-0.06065011f, 0.2801654f, -0.1543926f, -0.095247895f, -0.063958794f, 
		0.29992375f, -0.11061983f, 0.05612883f, 0.055219382f, 0.11892575f, 
		-0.18946984f, -0.1146193f, 0.039622247f, -0.15567069f, -0.1619069f, 
		-0.02993223f, 0.2089198f, 0.047218025f, 0.16097644f, 0.06738004f, 
		-0.30312684f, 0.24637058f, 0.0010018647f, -0.04233387f, 0.25652364f, 
		0.20213881f, 0.16371432f, 0.051766187f, -0.11050719f, 0.26900408f, 
		-0.0065393746f, -0.13345101f, 0.25551388f, -0.0840832f, 0.14987022f, 
		-0.08578703f, 0.1329146f, -0.21841322f, 0.029867709f, -0.010317445f, 
		-0.21471122f, 0.13375199f, 0.04161051f, -0.121180594f, -0.14446913f, 
		0.14044723f, -0.006779045f, 0.061965138f, -0.024343252f, -0.2845581f, 
		0.094706744f, 0.04749295f, -0.27994496f, -0.096702725f, -0.29831123f, 
		0.22855094f, 0.053121954f, 0.13718581f, -0.26840454f, -0.26987973f, 
		0.032882273f, 0.1302495f, 0.17533511f, -0.19175884f, 0.09711298f, 
		-0.07863006f, -0.12987517f, 0.089309454f, 0.14654249f, 0.21941385f, 
		-0.10389744f, -0.14999008f, -0.16731375f, 0.1640526f, 0.10830957f, 
		-0.27962807f, 0.15606359f, 0.12997496f, -0.16934076f, -0.3008604f, 
		-0.185958f, 0.020071834f, -0.19092745f, -0.15571296f, 0.18657261f, 
		-0.08769067f, 0.26130828f, -0.14007202f, -0.24360964f, -0.25315073f, 
		-0.087583944f, -0.023459375f, 0.21743307f, 0.26013342f, 0.2068195f, 
		0.113968074f, 0.01056698f, 0.25677213f, 0.047930717f, -0.073785245f, 
		0.061252087f, -0.25368237f, -0.28426477f, 0.06102258f, -0.0237405f, 
		-0.09192397f, 0.09050229f, -0.274603f, -0.15954453f, -0.008992553f, 
		0.14467025f, -0.09998818f, -0.26303154f, 0.041149944f, 0.12101233f, 
		-0.17587905f, 0.07670131f, -0.11182952f, -0.26949048f, -0.14461769f, 
		0.22077414f, 0.050884247f, 0.20144871f, 0.18089527f, 0.18593815f, 
		-0.19518271f, 0.20179716f, 0.20604882f, -0.2235915f, -0.05843872f, 
		0.25877628f, 0.03244537f, 0.16223285f, 0.14643255f, -0.10258955f, 
		0.24101505f, 0.16269019f, -0.078370765f, 0.28347066f, 0.08915943f, 
		-0.12074587f, -0.076562405f, -0.11666025f, 0.30014995f, 0.038597405f, 
		0.2691138f, 0.2209461f, 0.05453217f, -0.11759408f, -0.07000622f, 
		0.25873366f, -0.03033799f, 0.24264333f, -0.14800198f, 0.20263049f, 
		0.02790457f, -0.27556115f, -0.052770674f, 0.25655767f, -0.049237072f, 
		-0.034787297f, 0.20694521f, 0.08708361f, -0.294019f, -0.20217265f, 
		-0.062263653f, -0.023547828f, -0.24593061f, -0.06690633f, -0.1324153f, 
		0.08066416f, -0.29793003f, 0.07202834f, -0.18849185f, 0.16051653f, 
		0.16363147f, 0.18799216f, 0.14522484f, -0.25205848f, -0.22430158f, 
		-0.013219297f, -0.044994205f, -0.07210156f, 0.19093636f, -0.028908491f, 
		0.06745836f, 0.15399519f, 0.21300551f, 0.1556612f, -0.18760322f, 
		0.16137019f, 0.05821809f, 0.0951862f, 0.053218514f, 0.22760162f, 
		0.20806596f, 0.13231745f, 0.0054689646f, 0.16659492f, -0.062605366f, 
		-0.16872354f, 0.032374263f, -0.19541726f, -0.13921076f, -0.19349918f, 
		-0.097720936f, 0.28354076f, -0.1449202f, -0.12843655f, 0.079814196f, 
		-0.2541457f, -0.20437369f, -0.23074389f, -0.24138612f, -0.29483f, 
		-0.096505105f, 0.13926747f, -0.06306775f, 0.0038208365f, 0.28732434f, 
		-0.30461884f, 0.13147482f, 0.125289f, -0.16589098f, -0.11817406f, 
		-0.0395827f, -0.03100717f, 0.30038545f, 0.07468322f, -0.20414105f, 
		0.23791793f, -0.06868258f, -0.055853486f, -0.28252012f, 0.00037559867f, 
		0.25767514f, 0.28171405f, 0.2017276f, 0.1619685f, 0.24673375f, 
		-0.14742674f, -0.057628334f, 0.28229436f, 0.0058239102f, -0.088520974f, 
		-0.25086573f, -0.038523734f, 0.26875874f, -0.2641043f, 0.20085958f, 
		0.12624654f, -0.0157578f, 0.21896651f, 0.30147997f, -0.14459637f, 
		-0.16529413f, 0.23973522f, -0.025589734f, -0.018591315f, 0.15657085f, 
		0.17646983f, 0.087754756f, 0.0700331f, 0.22241768f, -0.26725054f, 
		0.25833127f, 0.19690594f, 0.026984781f, -0.02635333f, -0.24797769f, 
		0.114495784f, 0.05047247f, -0.13799983f, 0.07846516f, 0.019111395f, 
		-0.075575724f, -0.29766306f, -0.28959578f, -0.24894574f, -0.147051f, 
		-0.14026956f, -0.2805878f, -0.28906098f, 0.13504791f, 0.08984271f, 
		0.23832104f, 0.2692401f, 0.056600124f, -0.11478947f, 0.224646f, 
		-0.112625435f, 0.24417165f, -0.008745521f, 0.17078331f, 0.21160963f, 
		-0.03347832f, 0.17171088f, -0.06213604f, -0.0017590821f, -0.026451439f, 
		0.19458857f, -0.23114224f, 0.09165868f, 0.12573633f, -0.15504457f, 
		-0.100288644f, 0.19263157f, 0.26307097f, 0.15110138f, 0.19691208f, 
		-0.09563063f, -0.20124424f, 0.20462152f, 0.30352506f, -0.30110618f, 
		-0.1370411f, -0.13251172f, -0.156279f, -0.01705715f, -0.25721598f, 
		-0.28807095f, 0.2777308f, -0.24748515f, 0.19146326f, -0.1493152f, 
		-0.047252715f, 0.10601589f, 0.18785053f, -0.14735973f, 0.12986502f, 
		0.21800765f, 0.10249597f, -0.063142136f, -0.18554008f, 0.22703245f, 
		-0.11176053f, -0.24258594f, -0.07978478f, -0.14880376f, 0.27680042f, 
		0.13383317f, -0.112713486f, 0.14394674f, 0.0070070922f, -0.124188796f, 
		-0.23780632f, -0.15761097f, 0.17999765f, 0.0002015531f, -0.14945127f, 
		-0.18386143f, -0.0201931f, -0.27716678f, 0.300674f, 0.0933263f, 
		-0.16635555f, 0.14407185f, -0.298669f, 0.16049194f, -0.035325885f, 
		-0.17264491f, -0.0811723f, -0.22689602f, -0.15713544f, -0.0742366f, 
		0.28729466f, -0.2876533f, -0.20266001f, -0.2673001f, 0.07757491f, 
		-0.28456333f, 0.29627278f, 0.23835745f, -0.059852958f, -0.09755267f, 
		-0.062086627f, -0.26552293f, 0.0053859055f, -0.24195062f, 0.105306625f, 
		-0.15378487f, -0.08910279f, 0.11239943f, 0.029307872f, -0.248881f, 
		0.07775721f, -0.1627805f, -0.026738763f, -0.073480755f, -0.004719764f, 
		0.19139391f, 0.023266584f, 0.07486266f, 0.06716117f, -0.06388681f, 
		-0.11118434f, 0.15950775f, 0.21473482f, -0.17188789f, 0.21598223f, 
		-0.24812405f, 0.29157868f, -0.23570652f, -0.2772016f, 0.17863154f, 
		0.24486998f, 0.2985796f, -0.22877352f, 0.11688846f, 0.2421647f, 
		-0.29928878f, 0.13857865f, 0.062153995f, 0.09672105f, 0.049075246f, 
		0.075392336f, 0.16292408f, -0.19087875f, 0.28272715f, 0.30261704f, 
		0.16030154f, -0.08624095f, 0.22777107f, -0.057646006f, -0.011258572f, 
		-0.12494537f, -0.26354358f, 0.0649021f, -0.02805993f, -0.15990742f, 
		0.18175924f, 0.17427078f, -0.02034077f, 0.08107588f, -0.2864945f, 
		0.0073530376f, 0.2160069f, 0.06250769f, 0.26326218f, 0.20637283f, 
		-0.10608256f, 0.025903493f, -0.004638821f, 0.26735255f, -0.21792573f, 
		-0.19745141f, 0.041707665f, -0.14770962f, -0.073422715f, -0.2184341f, 
		0.2819449f, 0.0960128f, 0.29015443f, -0.06039673f, 0.15999654f, 
		-0.3022426f, 0.15269738f, -0.06259112f, -0.25275755f, -0.22796986f, 
		-0.13405196f, 0.09387213f, -0.06011276f, 0.051215082f, 0.26329604f, 
		0.13317114f, 0.25797793f, 0.11756742f, 0.018473864f, 0.29252383f, 
		-0.02748993f, -0.008188397f, 0.19015598f, 0.049898744f, 0.05042836f, 
		0.08189896f, -0.04967785f, 0.14154547f, -0.17133696f, -0.10413279f, 
		0.24083087f, 0.19512317f, -0.121855915f, 0.005249113f, -0.2548228f, 
		-0.12715371f, 0.04645613f, 0.25619683f, -0.09406011f, -0.24539828f, 
		-0.027478188f, 0.059720308f, -0.20434865f, -0.15615505f, 0.2681357f, 
		0.084204614f, -0.051004708f, 0.014065236f, 0.031351358f, 0.25726554f, 
		-0.29527295f, 0.20536634f, -0.032260597f, -0.17404082f, -0.2999008f, 
		0.20291325f, -0.2864474f, 0.11657658f, -0.1325034f, -0.007679224f, 
		0.3051726f, -0.0069362223f, -0.28325218f, 0.10239303f, 0.112683326f, 
		-0.08674765f, -0.28469366f, -0.002366811f, 0.086895555f, 0.035122424f, 
		-0.26396048f, -0.20069659f, 0.058004886f, -0.2824858f, -0.2909522f, 
		0.060884446f, -0.0617982f, -0.26931542f, 0.073168814f, 0.22112134f, 
		0.048370063f, -0.13761255f, 0.050243884f, -0.2849836f, -0.050440043f, 
		-0.30101377f, -0.1646691f, -0.12845604f, -0.13782105f, -0.20478308f, 
		-0.036184013f, 0.012787044f, -0.29807982f, 0.13442814f, 0.050372303f, 
		-0.10642631f, 0.2654204f, 0.29418036f, 0.24879429f, 0.020068347f, 
		-0.08538027f, -0.04030767f, 0.1191546f, 0.010803282f, 0.00091439486f, 
		-0.1937005f, -0.10854165f, 0.11803377f, 0.08000663f, 0.25028983f, 
		0.13016856f, -0.18888058f, 0.28112963f, -0.1270645f, 0.060442805f, 
		-0.113629565f, 0.0568406f, 0.107258946f, -0.0011197627f, -0.08073437f, 
		0.22038749f, -0.10015075f, 0.26019785f, -0.22919554f, 0.003050536f, 
		-0.28822803f, 0.25467542f, 0.22682807f, -0.057755068f, 0.21618047f, 
		-0.0057263672f, 0.21030149f, -0.11778818f, -0.10492696f, -0.1618204f, 
		-0.1738646f, 0.15185365f, 0.21093103f, 0.19813266f, 0.2244285f, 
		-0.10535583f, -0.042624116f, -0.30036584f, -0.22178116f, 0.19376272f, 
		0.11194858f, -0.09602864f, -0.15425587f, 0.23349681f, 0.074199885f, 
		0.12525636f, -0.2640753f, -0.089254916f, 0.10082865f, -0.21405786f, 
		-0.053277224f, -0.055345178f, 0.24865815f, 0.023560256f, 0.04459119f, 
		0.27452037f, 0.1598945f, -0.11762035f, -0.24633598f, -0.2782331f, 
		-0.03029424f, 0.19047132f, -0.070093095f, -0.20791364f, 0.16907686f, 
		0.2757767f, -0.005712062f, 0.10153243f, 0.24469468f, 0.24021527f, 
		-0.180292f, -0.27652124f, 0.22952005f, 0.013730228f, 0.09218085f, 
		0.30551186f, -0.13123983f, -0.29820254f, 0.0095234215f, -0.24325484f, 
		0.25842997f, 0.2608343f, 0.21236184f, 0.09388402f, -0.050307274f, 
		-0.20973688f, 0.27335355f, 0.13700345f, -0.19456126f, -0.14266908f, 
		-0.17919393f, 0.002908051f, -0.007153839f, -0.018991143f, 0.07946476f, 
		-0.25051796f, -0.24914883f, 0.02435273f, 0.04051125f, 0.08646375f, 
		0.11385617f, 0.018303186f, -0.2902218f, 0.30586407f, 0.0013850331f, 
		0.29620895f, 0.26910302f, -0.1643511f, 0.22478685f, 0.10205549f, 
		-0.25755987f, -0.12394628f, -0.03931564f, -0.15864049f, -0.09979181f, 
		0.16606268f, -0.12454073f, 0.11103541f, 0.026988208f, -0.3024918f, 
		-0.23026375f, -0.22945067f, 0.14844707f, -0.1298491f, 0.17096853f, 
		0.1437968f, -0.0112911165f, -0.043085188f, 0.2886102f, -0.29047397f, 
		-0.15119942f, -0.28428537f, -0.14210968f, 0.12273198f, 0.25084487f, 
		-0.010706753f, 0.2628617f, -0.106339514f, 0.26907298f, -0.13013957f, 
		-0.05156389f, -0.13084856f, -0.01864463f, -0.0005440712f, 0.15165633f, 
		0.21011838f, 0.26527104f, -0.23927866f, -0.02451706f, 0.27092054f, 
		-0.07194051f, 0.14904931f, 0.20287737f, -0.2063193f, 0.08959195f, 
		-0.17683586f, 0.041805923f, 0.21034089f, -0.2780633f, 0.20645538f, 
		0.121717155f, -0.11761662f, 0.041044384f, -0.18819013f, 0.24978146f, 
		0.06517446f, -0.28448004f, 0.08910197f, 0.064961225f, 0.013505757f, 
		-0.20413607f, 0.25991997f, -0.0042883456f, 0.009789288f, -0.29063106f, 
		0.10438815f, -0.11205669f, 0.23056224f, 0.03816822f, -0.047507107f, 
		-0.18498775f, 0.13304135f, -0.30488822f, -0.040542513f, -0.16424036f, 
		0.20027801f, 0.09941703f, 0.096815586f, 0.29579607f, 0.20081672f, 
		-0.2719233f, 0.1645396f, 0.12362531f, 0.05501783f, 0.2715558f, 
		-0.20016317f, -0.16952012f, -0.085330054f, -0.21723959f, -0.2388616f, 
		0.13266867f, -0.26647702f, -0.17688054f, 0.034727067f, 0.13092068f, 
		0.035037816f, -0.14343004f, 0.1539535f, 0.11267224f, 0.24434558f, 
		0.07976881f, -0.008772314f, -0.06352028f, 0.047841817f, -0.029245019f, 
		-0.23615803f, 0.092220426f, 0.2089481f, 0.001005441f, 0.027755648f, 
		0.09807259f, 0.06878638f, 0.00017431378f, -0.1613691f, -0.17605819f, 
		0.29936847f, 0.17389351f, 0.106809855f, 0.1682986f, 0.06911847f, 
		-0.29230753f, -0.07850823f, 0.1324583f, -0.23409884f, 0.2100825f, 
		0.012211531f, 0.11086276f, 0.15291038f, 0.11002377f, -0.16094796f, 
		0.07941723f, 0.12866679f, -0.30207884f, 0.028204322f, 0.0028580427f, 
		0.040619016f, 0.0007906556f, 0.052597582f, 0.2445161f, 0.09253037f, 
		-0.16422051f, 0.10025382f, -0.1408186f, 0.07573873f, -0.027948737f, 
		0.23680666f, 0.16935194f, -0.030892283f, -0.08131611f, -0.30575916f, 
		-0.18580595f, 0.023100138f, -0.021458864f, 0.106883526f, -0.074268356f, 
		0.28720334f, -0.12753382f, -0.09306109f, 0.06468421f, -0.15729912f, 
		-0.26440513f, -0.16668756f, 0.21868059f, -0.020602703f, -0.16195457f, 
		-0.1641862f, 0.129112f, 0.066904426f, 0.16345319f, -0.14589183f, 
		0.29481706f, -0.26325363f, 0.20582911f, -0.16669646f, 0.07644284f, 
		-0.010473371f, -0.054973394f, 0.08113441f, 0.1356839f, 0.14949667f, 
		-0.27390417f, 0.16037104f, -0.1880829f, -0.27096626f, -0.26417765f, 
		-0.28323385f, -0.12637107f, -0.20448151f, -0.11122748f, -0.18435112f, 
		-0.2616533f, -0.17239963f, 0.16421044f, 0.19190705f, 0.2487925f, 
		0.30268332f, 0.1470365f, 0.21080557f, 0.09902668f, 0.10604918f, 
		0.05197373f, -0.03947267f, 0.13867253f, 0.18802801f, -0.24676186f, 
		-0.09147982f, -0.08821575f, -0.20383152f, 0.27564946f, -0.07431041f, 
		-0.26601967f, 0.06682107f, 0.055874854f, -0.046903104f, -0.054703146f, 
		-0.19147713f, 0.118305385f, -0.13335262f, 0.14640173f, -0.21778914f, 
		-0.16986322f, 0.13897663f, -0.12823631f, -0.23739532f, 0.18932495f, 
		0.1670844f, 0.03339356f, -0.2466528f, 0.1116181f, -0.051625222f, 
		-0.1485484f, 0.16568023f, 0.3030224f, -0.2821516f, 0.14749369f, 
		0.18813568f, 0.102054834f, 0.0940752f, -0.2759603f, 0.24535528f, 
		0.16358006f, 0.24935243f, 0.18930727f, 0.22386715f, 0.24763015f, 
		0.18673444f, -0.18317114f, -0.19953749f, 0.13485673f, -0.17773457f, 
		0.076654166f, -0.05972965f, 0.07240501f, 0.0739876f, 0.14791211f, 
		-0.17045227f, 0.23674962f, -0.04342383f, -0.12628289f, -0.10084316f, 
		0.23553321f, 0.26127598f, -0.23859376f, -0.13153526f, 0.09793082f, 
		0.014393866f, -0.13799843f, -0.026111186f, 0.1307343f, -0.00820452f, 
		0.2650719f, -0.10694125f, -0.04231876f, -0.15654567f, -0.17808577f, 
		0.04720816f, 0.20488879f, 0.24238357f, 0.2693328f, 0.21364447f, 
		-0.031512707f, -0.25514868f, 0.07813978f, -0.043265283f, 0.26782653f, 
		0.24359158f, 0.08701569f, 0.1573962f, -0.13354045f, 0.14218318f, 
		-0.031144708f, 0.23150083f, -0.11855483f, -0.14161386f, -0.11875537f, 
		0.053631335f, -0.30565098f, 0.10034609f, 0.20732513f, 0.13230234f, 
		0.079300344f, -0.15958922f, -0.19521227f, -0.15557389f, 0.08106783f, 
		0.01704672f, 0.26480862f, -0.18266073f, -0.18392356f, 0.113781124f, 
		0.13737246f, 0.075739235f, 0.23207608f, -0.29065028f, 0.1307579f, 
		0.24176303f, -0.061612636f, -0.28987244f, -0.03756115f, -0.038583517f, 
		-0.029308975f, 0.16148782f, -0.18307208f, 0.16691115f, -0.04272923f, 
		-0.009017378f, 0.04270768f, 0.035708547f, 0.14375395f, 0.08848739f, 
		-0.1752449f, 0.2556055f, -0.2223691f, -0.15679826f, 0.29425803f, 
		0.23105231f, -0.16544998f, -0.26369798f, 0.26097336f, -0.2657201f, 
		0.24488339f, -0.18186684f, -0.30376533f, 0.080725044f, 0.14465564f, 
		-0.075067714f, -0.28009024f, -0.12619193f, -0.10841806f, -0.044078052f, 
		-0.16481306f, 0.08562678f, -0.19628546f, -0.07772252f, -0.27402756f, 
		-0.04486996f, -0.05768542f, 0.16744363f, -0.0137859285f, -0.28795376f, 
		-0.09408048f, -0.078096285f, -0.0077742636f, 0.16718623f, -0.02477622f, 
		-0.10777798f, -0.27264163f, 0.28667203f, -0.04884076f, -0.09431969f, 
		0.2416443f, 0.14956456f, 0.0116432905f, 0.18459246f, 0.23224637f, 
		0.0076034367f, 0.2580149f, -0.21387668f, -0.018690467f, 0.049787194f, 
		0.17548609f, -0.14298546f, -0.26555395f, 0.17528152f, -0.18351293f, 
		0.17495456f, 0.27444634f, -0.23464714f, -0.011353314f, 0.19566092f, 
		0.0029381216f, 0.018349469f, 0.24938652f, -0.23621395f, 0.0344038f, 
		-0.06359452f, -0.2865491f, 0.27651384f, -0.20033012f, 0.001204133f, 
		0.012495577f, 0.039572746f, 0.004783809f, 0.053054124f, -0.2520692f, 
		0.13545394f, 0.030240595f, 0.06641957f, -0.0026786923f, -0.04267806f, 
		-0.20164064f, 0.051157862f, -0.049149036f, -0.270772f, -0.05244574f, 
		0.03898877f, -0.17473294f, -0.19798505f, -0.07780816f, -0.15757534f, 
		0.077563316f, -0.25849465f, -0.11021826f, 0.12641203f, -0.08090067f, 
		0.10731584f, 0.2514064f, -0.28385946f, -0.2379964f, -0.23320407f, 
		0.16334596f, -0.16463646f, 0.008597702f, -0.111802f, -0.25084382f, 
		-0.059275374f, 0.07441202f, 0.23002848f, 0.09997466f, 0.23278978f, 
		0.22399351f, 0.21975806f, 0.036286652f, 0.08497256f, -0.30254388f, 
		-0.19888471f, -0.13631848f, -0.0033572316f, 0.19067428f, 0.17271402f, 
		-0.22790131f, 0.032812625f, -0.13198641f, -0.037361562f, 0.063672274f, 
		0.20927963f, -0.09693414f, 0.26807854f, -0.2656035f, -0.096577376f, 
		-0.16115382f, 0.21295854f, -0.226759f, 0.19218093f, 0.07808715f, 
		-0.30121678f, -0.2396779f, -0.054360747f, 0.050390035f, -0.22062813f, 
		0.15043342f, 0.1586191f, 0.21800593f, -0.09723942f, -0.04556808f, 
		-0.15635477f, -0.017702997f, 0.0081939995f, -0.09825078f, -0.278758f, 
		-0.078060225f, -0.21697591f, -0.054895133f, -0.20282331f, -0.08978476f, 
		0.2170901f, 0.24240556f, -0.080763936f, -0.16032878f, 0.2589902f, 
		0.07267913f, 0.058543265f, 0.06584942f, 0.1388343f, 0.055936337f, 
		-0.12883943f, 0.1616087f, 0.07474244f, 0.24139205f, -0.038219333f, 
		-0.25998262f, -0.037982672f, -0.24025993f, 0.0002180636f, -0.07687572f, 
		-0.29394448f, -0.26239827f, -0.17182826f, 0.03805086f, 0.20696726f, 
		0.056494504f, 0.2726026f, 0.06725383f, -0.20320073f, 0.20118394f, 
		-0.26414466f, 0.13075489f, 0.19702074f, -0.115742415f, 0.12732059f, 
		0.28413197f, 0.27886936f, -0.24722265f, -0.25661993f, -0.1616925f, 
		0.00519076f, 0.18011671f, 0.10721114f, 0.21156302f, -0.09111403f, 
		-0.07668832f, 0.119609475f, 0.1981202f, 0.29175028f, -0.28494096f, 
		0.23028049f, 0.23861751f, -0.21601333f, -0.12256621f, 0.067046344f, 
		-0.17193133f, 0.027894884f, 0.1546784f, -0.11103754f, -0.2721255f, 
		0.10555747f, -0.2993538f, 0.0099906325f, 0.031389475f, -0.01684618f, 
		0.04469651f, 0.19139925f, 0.21374288f, 0.2208738f, 0.30605546f, 
		-0.11448622f, -0.29875538f, 0.044009805f, -0.30165794f, -0.056010574f, 
		-0.28903958f, -0.20216346f, 0.21172175f, 0.29702005f, -0.22968662f, 
		-0.012217522f, -0.21128385f, -0.11554998f, 0.21422467f, -0.028698832f, 
		0.28763577f, -0.27410135f, 0.22816655f, -0.15853333f, -0.052151114f, 
		0.246061f, 0.19479433f, -0.109323844f, -0.06631999f, 0.16519082f, 
		0.18854257f, 0.29265943f, 0.28379247f, 0.2938858f, -0.099913284f, 
		-0.016940206f, 0.23133859f, -0.12045978f, -0.25605622f, -0.23425995f, 
		-0.097709104f, -0.07633646f, 0.00020936131f, 0.1861035f, -0.2927405f, 
		-0.26031974f, -0.016341954f, -0.16105317f, 0.29714033f, -0.10569215f, 
		0.19481078f, -0.2704441f, -0.0019842386f, 0.10701725f, 0.28171727f, 
		-0.10546468f, -0.19109118f, 0.19387099f, 0.13838476f, -0.09621844f, 
		-0.028916806f, 0.052544594f, 0.05776748f, 0.07264343f, 0.049904168f, 
		-0.010364473f, 0.08159819f, 0.24358359f, -0.14139253f, 0.17069688f, 
		0.18707266f, 0.1291205f, 0.055771947f, -0.1888875f, 0.26905188f, 
		-0.2574289f, 0.029862165f, 0.27111575f, -0.22088158f, 0.2333602f, 
		0.20778677f, 0.27240327f, 0.268774f, -0.08774468f, -0.038612664f, 
		-0.040964723f, -0.12077966f, 0.13026696f, 0.117063284f, -0.12886477f, 
		-0.1284891f, -0.058008447f, -0.24170724f, 0.063143075f, -0.12007214f, 
		-0.19080202f, -0.146188f, -0.0906001f, -0.1665839f, 0.14447564f, 
		-0.1630598f, 0.122214705f, 0.1180042f, 0.24934974f, -0.22816068f, 
		-0.24190901f, 0.17314911f, 0.20082572f, 0.030356824f, 0.043373376f, 
		0.11318791f, 0.30306217f, 0.15950832f, 0.2953243f, 0.19637659f, 
		-0.22234729f, 0.25226662f, -0.16057603f, -0.071612895f, 0.28755775f, 
		-0.054056197f, -0.2311021f, 0.051706165f, 0.038125306f, -0.24193938f, 
		-0.06067443f, 0.1614283f, 0.014489502f, -0.2175521f, -0.19321892f, 
		0.14415857f, -0.12241809f, -0.008250743f, -0.22397768f, 0.05993828f, 
		0.03026089f, 0.073786855f, 0.26068005f, -0.23356819f, -0.045057207f, 
		0.0065983534f, -0.10788946f, -0.16719505f, -0.19754261f, -0.24461229f, 
		-0.27882296f, 0.06943098f, 0.2831188f, 0.07347557f, 0.2689211f, 
		-0.030507714f, -0.23528495f, 0.2474713f, -0.109561905f, 0.05296126f, 
		-0.049963713f, 0.10330269f, -0.2950303f, -0.12834573f, 0.15016595f, 
		-0.23113844f, -0.24920519f, 0.16624546f, 0.2860438f, -0.29426518f, 
		0.14071655f, -0.19014013f, -0.15273337f, -0.11186084f, 0.300109f, 
		0.061101407f, -0.015154034f, 0.061269462f, -0.011997491f, 0.18877146f, 
		0.08483714f, -0.28995946f, -0.22199783f, 0.28186408f, 0.04990679f, 
		0.23028836f, -0.03529048f, -0.08979264f, -0.1997535f, -0.0069587827f, 
		0.203213f, 0.13005117f, -0.23531824f, 0.17382824f, 0.12503612f, 
		0.2556843f, 0.19374123f, 0.12999636f, 0.13937575f, 0.05269271f, 
		0.15215588f, -0.19553736f, -0.23208168f, 0.23037359f, 0.27590725f, 
		0.1858047f, -0.2201486f, -0.064944f, 0.2586014f, 0.2760022f, 
		-0.22621661f, -0.2713515f, 0.00199911f, 0.053675354f, 0.20464453f, 
		0.22084013f, 0.2751936f, 0.042734206f, 0.15930977f, 0.013186455f, 
		-0.11695999f, 0.27818558f, 0.048430264f, -0.28879088f, -0.24200362f, 
		0.28523985f, 0.11921498f, 0.00046801567f, -0.06125705f, 0.1536637f, 
		-0.20352659f, -0.21400195f, -0.2291705f, 0.115057886f, -0.1805505f, 
		0.09278676f, 0.06942871f, -0.15019347f, -0.15151908f, 0.1402578f, 
		0.21193913f, -0.020786583f, 0.287931f, -0.24386615f, -0.17298079f, 
		-0.28401512f, 0.011098862f, 0.24787232f, -0.12991977f, -0.17618988f, 
		0.2262257f, -0.09562048f, 0.28471395f, 0.02014938f, 0.074926466f, 
		0.2602912f, -0.1587738f, -0.007999748f, -0.030723482f, -0.093894035f, 
		-0.2991108f, -0.023770332f, 0.17528862f, -0.2867465f, 0.0043019056f, 
		0.1816706f, -0.09836757f, 0.23580721f, -0.058316067f, 0.10356426f, 
		0.108787745f, -0.26870617f, -0.07278521f, 0.024117976f, -0.25950184f, 
		-0.17699048f, 0.16095906f, 0.049668223f, 0.22614136f, -0.05472818f, 
		-0.03580928f, -0.09403996f, 0.1535193f, 0.19961551f, 0.1995807f, 
		-0.09910481f, -0.02658853f, 0.13547096f, -0.19385542f, -0.20178065f, 
		-0.028274119f, 0.082086205f, 0.2820371f, -0.04195994f, 0.16114113f, 
		-0.0045785904f, 0.12512642f, -0.18781988f, 0.30393264f, -0.04960397f, 
		-0.22518045f, -0.1686109f, 0.28658584f, 0.26423284f, 0.1854322f, 
		-0.20718136f, 0.20319381f, -0.20554206f, 0.091705024f, -0.23075533f, 
		0.23609999f, 0.2658601f, 0.1828514f, 0.095133215f, -0.024266899f, 
		-0.1766049f, 0.040972978f, 0.2757508f, -0.090705365f, -0.13585609f, 
		0.18380553f, -0.2200777f, 0.09578356f, 0.05652055f, 0.12723124f, 
		-0.16970277f, -0.22293508f, 0.06981322f, 0.23335877f, -0.15038691f, 
		0.18137023f, -0.16101907f, -0.028905064f, -0.29271296f, 0.07372627f, 
		0.17233852f, 0.23969558f, -0.05393946f, 0.14035541f, 0.26008305f, 
		-0.040956914f, 0.24027869f, 0.049389273f, -0.14881222f, 0.024486989f, 
		-0.12996635f, 0.24319395f, 0.0069294274f, -0.18028536f, 0.028614283f, 
		-0.21961963f, 0.030519813f, -0.28434783f, -0.26265275f, -0.10981017f, 
		-0.26912776f, 0.2244905f, 0.024096727f, -0.13999361f, 0.0065291524f, 
		0.17465359f, -0.18515974f, 0.24674085f, 0.10860413f, 0.11439708f, 
		-0.11193843f, 0.24492714f, -0.092706606f, -0.0005991161f, 0.28745028f, 
		-0.06490897f, -0.18344402f, -0.17968822f, -0.17182788f, -0.2038773f, 
		0.30280426f, -0.06896691f, -0.04685107f, -0.16308403f, 0.11228737f, 
		-0.080879435f, 0.04579708f, -0.116151735f, -0.004103422f, -0.102754235f, 
		-0.05724515f, -0.25318056f, -0.20170218f, 0.08679956f, 0.17816097f, 
		0.26545247f, 0.15445787f, -0.19606937f, 0.17441618f, 0.30449727f, 
		0.10935861f, -0.17502232f, -0.20961885f, -0.08704834f, 0.036216795f, 
		0.29501542f, -0.09297824f, -0.124096885f, -0.23252195f, 0.06646556f, 
		-0.04034531f, 0.12698442f, -0.18801275f, 0.22672376f, 0.1527246f, 
		0.099068075f, 0.14124492f, 0.17175904f, -0.24858132f, 0.19676402f, 
		0.0066999793f, -0.19871484f, 0.26979336f, -0.07346353f, -0.19354355f, 
		-0.13595457f, 0.2350569f, -0.20622265f, -0.19902968f, 0.23309484f, 
		-0.22751828f, -0.18711704f, -0.28747132f, -0.23106508f, -0.25634083f, 
		-0.29558903f, -0.07951264f, 0.22121951f, 0.29855558f, -0.22753164f, 
		-0.29047033f, 0.04496479f, 0.24649736f, 0.08758795f, 0.19799855f, 
		-0.11203933f, 0.201229f, -0.22639778f, -0.26155177f, 0.048973173f, 
		0.123987526f, -0.041612536f, -0.26213568f, 0.2728785f, 0.13367906f, 
		-0.21037981f, 0.0641889f, 0.024543136f, -0.048128486f, 0.23302326f, 
		-0.099137366f, -0.00800544f, 0.22075549f, 0.080747664f, -0.098861486f, 
		-0.25005046f, 0.24279645f, -0.20824951f, 0.2769048f, -0.068046525f, 
		0.2643964f, -0.09148465f, 0.007581234f, -0.17849758f, -0.20234129f, 
		0.2350116f, 0.059947282f, 0.11264333f, 0.21709248f, 0.1429143f, 
		-0.17663738f, 0.15583006f, 0.1054914f, 0.068430305f, -0.15101837f, 
		0.21651384f, -0.17954244f, 0.12000215f, -0.0414488f, -0.07462686f, 
		0.26779667f, 0.07402396f, -0.13020185f, -0.10668495f, 0.14652014f, 
		-0.1711546f, -0.09988853f, -0.13521814f, 0.21696815f, -0.028857976f, 
		-0.12824754f, -0.10902879f, -0.07026166f, 0.10982397f, -0.2243199f, 
		0.20965639f, -0.041484356f, -0.2308014f, -0.04925108f, -0.15133074f, 
		0.29563138f, -0.029640973f, -0.158087f, -0.26622546f, -0.13088994f, 
		0.24365476f, 0.26765808f, 0.19875619f, -0.07143463f, 0.2822961f, 
		-0.23194349f, 0.00939858f, -0.27329433f, -0.2249166f, 0.23527852f, 
		-0.27073967f, 0.22290859f, 0.09066719f, -0.22016662f, -0.20529963f, 
		0.13270831f, -0.045918405f, 0.24500445f, -0.22954929f, 0.05186662f, 
		-0.042757124f, 0.2773809f, -0.015965432f, 0.16687006f, -0.20744482f, 
		-0.029469639f, 0.21992901f, 0.22063449f, 0.23374441f, -0.09824872f, 
		0.2045202f, -0.045250654f, 0.064935535f, -0.040337592f, 0.30107883f, 
		0.1954678f, 0.1570296f, 0.26976702f, -0.002480179f, -0.28782353f, 
		-0.052523047f, -0.21532245f, -0.24246447f, 0.23977658f, 0.23226717f, 
		-0.14845064f, 0.266687f, 0.043681145f, 0.13326523f, 0.18790099f, 
		0.13431096f, -0.03996712f, 0.23402855f, -0.095560774f, 0.11359751f, 
		-0.17121862f, 0.18504924f, 0.2649288f, 0.024787962f, 0.15417045f, 
		0.08312851f, -0.048223317f, -0.20637485f, -0.030489743f, 0.17318279f, 
		-0.20321816f, -0.29210013f, 0.16638213f, -0.10604635f, -0.035112858f, 
		0.052975506f, 0.26935783f, 0.23288265f, -0.24908444f, 0.1684646f, 
		-0.018183768f, -0.30548427f, 0.2375339f, -0.1389846f, 0.28439364f, 
		0.3032346f, 0.246322f, -0.27653775f, -0.14774284f, -0.2506457f, 
		0.088516384f, 0.25584742f, -0.24481896f, -0.15387736f, -0.19066544f, 
		-0.13863851f, -0.24151057f, -0.254985f, 0.14864519f, -0.0020780265f, 
		-0.18192196f, 0.19278091f, 0.07609519f, -0.05562213f, -0.19832692f, 
		-0.28145993f, 0.29895946f, 0.25418147f, 0.1940628f, 0.09867293f, 
		0.24820581f, 0.07468009f, 0.058386892f, 0.17832404f, 0.13903606f, 
		-0.014398754f, -0.18758643f, -0.18419673f, -0.020743519f, -0.02024734f, 
		0.24016628f, 0.26538935f, 0.28544512f, 0.10889417f, 0.045993447f, 
		-0.012888759f, 0.30512896f, -0.07268454f, 0.25828865f, -0.20026886f, 
		-0.15113999f, 0.19337457f, -0.0033216774f, 0.30579808f, 0.15784618f, 
		0.19455054f, -0.07972208f, 0.29755852f, -0.08989324f, -0.10458167f, 
		0.06151116f, -0.24096483f, -0.15251984f, 0.058449507f, 0.20988944f, 
		0.18108645f, -0.02082324f, -0.10203175f, -0.23473868f, -0.0021853447f, 
		0.14336237f, -0.1724624f, 0.0011815131f, 0.2297894f, -0.2862531f, 
		-0.16478735f, 0.26272306f, -0.2324664f, -0.20632908f, 0.14725357f, 
		-0.15144353f, -0.28853106f, -0.20482776f, -0.14404623f, 0.22810355f, 
		0.25180635f, -0.2540055f, -0.093790725f, -0.20005426f, -0.029731274f, 
		0.12423888f, 0.03405115f, 0.12370464f, -0.30362517f, -0.25079063f, 
		0.11033228f, -0.18397671f, -0.20651239f, -0.25733933f, -0.12194468f, 
		0.06182155f, -0.16971649f, 0.0152976215f, -0.22901604f, 0.11759737f, 
		-0.069147885f, 0.25051078f, -0.29395097f, -0.065592915f, 0.13140395f, 
		-0.14237708f, -0.144961f, 0.09869805f, 0.120022714f, -0.14707218f, 
		0.21669784f, -0.0868489f, 0.24333099f, 0.07623237f, 0.20779034f, 
		-0.21377593f, 0.11268553f, 0.19249615f, -0.029721707f, -0.0909635f, 
		0.14524388f, -0.1141413f, -0.17759894f, -0.039652854f, -0.20591612f, 
		0.25160834f, -0.040501624f, 0.25889835f, 0.033748865f, -0.10847251f, 
		0.07619777f, 0.28311303f, -0.064398035f, -0.23196277f, 0.11560407f, 
		0.18414503f, -0.21393609f, 0.008766472f, 0.19998285f, -0.14778905f, 
		-0.030366302f, 0.05868742f, -0.12894616f, -0.22495173f, 0.24655256f, 
		-0.18269044f, 0.16353378f, -0.015731454f, -0.19235247f, 0.078828484f, 
		-0.0027984679f, 0.12715727f, 0.2006332f, -0.16459595f, -0.11325295f, 
		0.05838695f, 0.1142897f, 0.22294787f, 0.03027755f, 0.19521454f, 
		0.037017226f, -0.072127685f, -0.086564705f, -0.06948033f, 0.23077676f, 
		0.05036071f, 0.08701703f, -0.1856874f, -0.18920544f, 0.29360977f, 
		-0.22787446f, 0.09672096f, 0.25398073f, -0.08089402f, -0.30092996f, 
		-0.26169586f, -0.29781547f, 0.17524731f, 0.23829529f, 0.22657767f, 
		-0.08212489f, 0.07471752f, -0.0019516647f, -0.1319583f, 0.049283862f, 
		-0.2495445f, -0.30518326f, 0.18656763f, 0.22721425f, -0.058691144f, 
		0.007406056f, -0.011233091f, 0.09373137f, -0.1587394f, -0.01315397f, 
		0.111982465f, 0.2406691f, 0.093254775f, -0.26677823f, 0.12661293f, 
		-0.25365955f, -0.29190195f, 0.26766255f, 0.04390329f, -0.08237068f, 
		0.008305997f, 0.17090428f, -0.1979371f, -0.3020831f, 0.07181516f, 
		0.20693216f, 0.15713048f, 0.22718152f, -0.1455623f, 0.17498136f, 
		-0.0013783872f, 0.007039666f, -0.07739365f, -0.16572775f, -0.1362116f, 
		0.13181245f, 0.044575274f, -0.13268071f, 0.17976809f, 0.28228727f, 
		0.16639116f, 0.30486467f, -0.020863235f, 0.04136908f, 0.23057982f, 
		-0.28776625f, 0.002729714f, 0.033370286f, 0.25131008f, -0.06949106f, 
		0.06497693f, 0.016925305f, -0.036810577f, -0.022766382f, -0.086880356f, 
		0.20104298f, 0.11590922f, -0.24740192f, 0.20208457f, 0.03374389f, 
		-0.29161453f, 0.27721563f, -0.09849021f, 0.0018902123f, 0.004429728f, 
		0.17500049f, -0.1116492f, 0.04751435f, -0.05731611f, -0.10595232f, 
		-0.07843676f, 0.14590964f, 0.20167896f, -0.09789598f, -0.081884205f, 
		-0.07345681f, -0.006715536f, -0.076855645f, -0.071881756f, 0.25181505f, 
		-0.21055427f, 0.009800106f, 0.23310551f, -0.2588281f, 0.27053967f, 
		-0.016858518f, -0.28489175f, -0.23195079f, 0.2725f, -0.28088915f, 
		-0.012012899f, 0.062266946f, -0.018698424f, -0.036570907f, -0.17446992f, 
		0.0416829f, 0.21045193f, 0.20906875f, 0.2030513f, 0.1880678f, 
		-0.28854543f, 0.10267043f, -0.18598647f, 0.18553877f, 0.1528455f, 
		-0.17689645f, 0.21479645f, -0.29217815f, 0.086538136f, -0.06183958f, 
		0.16569006f, -0.12243277f, -0.11780745f, -0.15622403f, 0.10979834f, 
		0.15617469f, -0.12617695f, 0.16639534f, -0.20999451f, 0.24323705f, 
		-0.28102806f, 0.17516014f, -0.20560703f, 0.23565623f, 0.17020318f, 
		0.007540792f, -0.008168012f, -0.016061217f, 0.16884714f, 0.059688926f, 
		-0.0019856095f, -0.2834271f, 0.30109677f, 0.16188258f, 0.16889566f, 
		-0.12551893f, -0.058495358f, 0.11335772f, -0.10513705f, -0.12755221f, 
		0.27860674f, -0.2900026f, -0.13830599f, -0.21293935f, -0.15986909f, 
		-0.08121611f, -0.124516636f, 0.16264918f, -0.2227523f, 0.09338507f, 
		0.14967415f, -0.048804104f, 0.016288966f, -0.1388137f, 0.25060967f, 
		0.18852362f, -0.10709967f, 0.2632948f, -0.21527675f, -0.2801793f, 
		-0.21032512f, 0.304768f, 0.244706f, -0.0418714f, -0.027298093f, 
		-0.16385405f, 0.21550927f, -0.10765922f, -0.070963696f, -0.18409386f, 
		-0.047465414f, 0.039783448f, -0.22272499f, 0.24102321f, -0.16873552f, 
		0.1576814f, -0.099569306f, 0.07831892f, -0.3041436f, 0.20535854f, 
		-0.25269148f, 0.25152317f, -0.17808783f, 0.11936638f, -0.1856314f, 
		0.27282974f, -0.13199028f, -0.023098886f, -0.12851568f, 0.18419796f, 
		-0.08098689f, -0.21327507f, -0.0062657f, -0.15711084f, -0.1441564f, 
		0.122852504f, -0.07593773f, -0.15853888f, -0.26087564f, -0.08656989f, 
		-0.24282837f, 0.27049956f, 0.076976836f, -0.19182944f, 0.055051267f, 
		-0.27924556f, 0.040435046f, 0.19702724f, 0.019148767f, -0.11430891f, 
		0.14818501f, -0.113474f, -0.25272557f, 0.29855695f, 0.023876041f, 
		-0.14809667f, 0.16646928f, 0.13865983f, 0.19121125f, 0.1793881f, 
		-0.18069883f, 0.1556134f, -0.21226957f, -0.21710768f, 0.09443721f, 
		0.24451128f, -0.034920156f, 0.06434336f, -0.1728569f, 0.07675409f, 
		0.18037874f, -0.1913859f, -0.0010893047f, 0.08916688f, 0.050363332f, 
		0.07166815f, 0.12510437f, 0.023914307f, -0.100113675f, 0.10643354f, 
		0.1647442f, 0.20718178f, -0.246165f, 0.06579074f, -0.1710332f, 
		0.20175001f, -0.30199212f, -0.02690491f, -0.026381075f, -0.24239373f, 
		0.19335806f, 0.16304666f, 0.30050173f, -0.21694408f, 0.21680388f, 
		0.26575652f, 0.19038454f, -0.017500758f, 0.2719781f, 0.040439934f, 
		-0.21955729f, -0.25030458f, -0.06804149f, -0.036438555f, -0.28559163f, 
		-0.006783068f, -0.004807234f, -0.19457695f, -0.043103725f, 0.10525873f, 
		-0.22884199f, 0.2323294f, 0.07245144f, -0.123331174f, 0.123924226f, 
		0.05429375f, -0.29470113f, 0.22502658f, -0.034734666f, 0.088472575f, 
		0.16519031f, 0.062154353f, -0.28570178f, 0.19293088f, -0.287821f, 
		0.12814891f, -0.0680117f, 0.23285773f, -0.1661364f, 0.23955742f, 
		0.08354935f, 0.26191983f, -0.05886686f, -0.06919263f, -0.06258251f, 
		0.12552449f, -0.06849672f, -0.1188626f, -0.15435186f, -0.09065369f, 
		0.28108397f, 0.20276752f, 0.23490307f, 0.060123503f, -0.30346447f, 
		0.2645667f, -0.20192096f, -0.1846321f, -0.016231745f, -0.24515957f, 
		-0.11380345f, -0.1049355f, 0.30385622f, -0.07047862f, -0.017207235f, 
		0.09046185f, 0.016073525f, -0.16449696f, -0.099821955f, -0.12548345f, 
		-0.20312217f, -0.047865093f, 0.097564936f, 0.25821623f, -0.06121923f, 
		0.22071967f, 0.2810187f, -0.20460883f, 0.19642946f, -0.00832206f, 
		-0.23399562f, 0.20939085f, -0.1519011f, -0.22640108f, 0.115635484f, 
		0.14849949f, -0.1043396f, 0.09766093f, -0.12217128f, -0.057072f, 
		-0.0074262023f, -0.27037883f, -0.21411386f, -0.27916443f, 0.110171735f, 
		-0.10180436f, -0.021119416f, 0.21236911f, 0.06932396f, -0.14232138f, 
		-0.16024782f, -0.043536603f, -0.093958855f, -0.23323423f, -0.19502744f, 
		0.12130973f, 0.22852394f, -0.28666013f, 0.2990552f, 0.1281555f, 
		-0.22485712f, 0.021515638f, -0.057605043f, 0.21312162f, -0.1980271f, 
		-0.22616223f, -0.17527519f, 0.17834821f, 0.1688832f, 0.0031175613f, 
		-0.2288217f, -0.26446244f, -0.098835796f, -0.18751547f, 0.10625294f, 
		-0.21516907f, 0.032263517f, 0.10313398f, -0.20566288f, 0.16495577f, 
		-0.14468405f, -0.20463693f, 0.24197683f, -0.11520156f, -0.20358294f, 
		0.046012282f, 0.27146623f, 0.17675403f, 0.032052338f, -0.07801241f, 
		-0.30556953f, -0.026344478f, 0.2615517f, 0.13381574f, -0.17811994f, 
		-0.26538846f, 0.15792245f, 0.27269074f, -0.20688835f, 0.094946116f, 
		-0.003682226f, -0.23766601f, 0.19046447f, 0.06303725f, -0.23443156f, 
		-0.10573222f, 0.08339736f, -0.24508248f, -0.16071662f, 0.11529595f, 
		0.1685276f, 0.29894426f, 0.23088732f, 0.03246981f, 0.12395856f, 
		-0.184362f, 0.1539776f, 0.101956725f, 0.05795318f, -0.14065865f, 
		0.29977497f, -0.269275f, 0.031571895f, 0.02000776f, 0.020142645f, 
		-0.1068027f, 0.014096171f, 0.17134309f, 0.29108486f, 0.11846328f, 
		-0.25886425f, -0.17844063f, 0.29304442f, 0.17326191f, 0.14576614f, 
		-0.044454157f, -0.2991814f, -0.068631336f, 0.1459811f, -0.20326336f, 
		-0.18265305f, 0.20226559f, 0.16443405f, -0.289597f, 0.10431084f, 
		0.28373262f, 0.1502712f, -0.22938731f, 0.14070287f, 0.29831234f, 
		-0.098588616f, -0.037453204f, -0.26562476f, 0.21756342f, -0.05934143f, 
		0.09758252f, -0.23919126f, 0.038912326f, 0.08887488f, 0.1289233f, 
		0.07958549f, 0.28948298f, 0.21532258f, 0.1694648f, 0.22367868f, 
		0.16605917f, -0.014888823f, 0.07088429f, -0.27238417f, -0.29772496f, 
		-0.12480207f, 0.18273744f, 0.1529553f, 0.3022916f, -0.25516436f, 
		-0.023855329f, -0.27926877f, 0.026664525f, 0.09229925f, 0.13408789f, 
		-0.063856885f, 0.116378754f, -0.040993482f, -0.22528979f, 0.036999494f, 
		0.24022701f, -0.2850607f, 0.043239206f, -0.2107059f, 0.06478706f, 
		0.007170975f, -0.27454373f, -0.11324996f, -0.2559124f, -0.093592316f, 
		-0.19704714f, -0.28085244f, 0.23051861f, -0.2613383f, -0.121335134f, 
		0.10904804f, -0.13357075f, 0.29628655f, 0.12523344f, -0.26119122f, 
		-0.07401271f, 0.08161855f, -0.105156034f, -0.07694821f, 0.14684945f, 
		0.104263455f, -0.24693939f, 0.067151695f, 0.08772701f, 0.20931354f, 
		0.044026583f, 0.22123352f, 0.086933136f, 0.028630346f, 0.21734777f, 
		0.10191423f, -0.16405925f, 0.06649315f, -0.007359624f, -0.27543113f, 
		-0.09777561f, 0.1159333f, -0.16979395f, -0.1265024f, -0.052004665f, 
		0.06528565f, 0.1928232f, 0.27054504f, -0.139431f, 0.05807355f, 
		-0.10189466f, 0.12533367f, -0.037759423f, 0.20086351f, 0.09729549f, 
		-0.29295292f, 0.22465011f, 0.044946462f, -0.24554846f, -0.17745382f, 
		0.14276493f, 0.24672034f, 0.029694915f, -0.20872232f, 0.052015543f, 
		0.059099138f, -0.29732418f, 0.06401706f, 0.17086142f, -0.19122973f, 
		-0.11557941f, -0.0066193044f, 0.13237667f, -0.0537647f, 0.1901848f, 
		0.14577702f, 0.13272211f, 0.045125037f, -0.26152512f, -0.28572616f, 
		0.25922653f, 0.107788146f, 0.09865856f, 0.2293624f, -0.19619495f, 
		-0.06959516f, 0.2486926f, -0.15264328f, 0.24398646f, -0.28837842f, 
		0.20848742f, 0.061208487f, -0.071657345f, 0.19973573f, -0.01522243f, 
		0.061370134f, -0.17084187f, -0.10035975f, -0.18725741f, -0.075840056f, 
		0.1831077f, -0.027774334f, 0.211139f, -0.25048488f, 0.18348607f, 
		0.19154546f, -0.2141924f, 0.1598612f, -0.2828535f, -0.19002223f, 
		-0.0720779f, 0.23296002f, -0.123838454f, -0.08038719f, 0.2878137f, 
		0.20159331f, 0.09359452f, 0.11978415f, 0.25755754f, -0.048155576f, 
		-0.25537002f, -0.18832964f, 0.036457896f, 0.24029729f, -0.21422592f, 
		-0.08249317f, -0.19676375f, -0.13489184f, 0.08366367f, 0.18879613f, 
		-0.23707667f, 0.02685988f, -0.1771886f, -0.23965782f, -0.09252052f, 
		-0.23403233f, 0.30276647f, -0.04565683f, 0.23334995f, 0.046011984f, 
		-0.16080634f, 0.12916684f, 0.22994801f, -0.07565194f, 0.05528605f, 
		0.09066412f, 0.14040205f, -0.26933244f, 0.0003182888f, 0.2612526f, 
		0.30608723f, 0.28554937f, -0.18809605f, 0.15709653f, 0.29134974f, 
		0.28281328f, -0.29343435f, -0.29080224f, 0.11141187f, -0.08336502f, 
		0.19351596f, 0.02255845f, 0.29294524f, -0.22377619f, 0.24302348f, 
		0.19074997f, -0.23240814f, 0.30161437f, 0.14684477f, 0.09826639f, 
		0.045991123f, -0.22663242f, 0.29339996f, -0.0842084f, 0.01798731f, 
		-0.2412026f, 0.021117061f, 0.152527f, -0.2836871f, 0.231379f, 
		0.054303676f, 0.023375481f, 0.13863975f, -0.047856122f, -0.020556867f, 
		-0.15752906f, -0.3025801f, -0.04601893f, 0.2889062f, -0.25697878f, 
		-0.23488316f, 0.21845368f, 0.15322825f, -0.2414648f, -0.28791508f, 
		0.27690235f, -0.23133022f, 0.30455968f, 0.21010736f, 0.28795466f, 
		-0.2472006f, 0.08675012f, 0.098097235f, 0.09606171f, -0.2991614f, 
		0.08076176f, -0.11112434f, 0.20797846f, -0.11655396f, 0.11174798f, 
		0.07574305f, -0.12889105f, -0.053213716f, 0.18734065f, 0.19034243f, 
		-0.20204243f, 0.21052793f, 0.21817765f, -0.049780786f, -0.15274936f, 
		0.25548288f, -0.15757345f, 0.20563677f, 0.12761521f, -0.085225806f, 
		-0.11463924f, 0.08327252f, 0.04540339f, 0.116003394f, -0.0755485f, 
		-0.0837363f, -0.044421524f, 0.20159581f, 0.2747511f, 0.2189497f, 
		0.074750155f, 0.23105392f, 0.04727f, 0.13473737f, -0.29643717f, 
		-0.097626984f, -0.12084259f, -0.13148008f, 0.10991275f, -0.15840872f, 
		-0.29029337f, -0.015699983f, -0.23741093f, 0.24348399f, -0.14732425f, 
		-0.27679083f, -0.25513735f, 0.11756012f, 0.06533331f, 0.067196876f, 
		-0.024483621f, -0.29725084f, -0.24241644f, -0.22867475f, 0.20924273f, 
		-0.17974107f, 0.15073979f, 0.26679704f, -0.16253062f, 0.2592226f, 
		0.27062365f, 0.07281476f, -0.20680445f, 0.14740878f, -0.22378051f, 
		0.23602971f, 0.018752813f, 0.16646f, 0.024707675f, 0.0776985f, 
		-0.29469156f, -0.23054531f, 0.15481499f, 0.16094652f, 0.19590715f, 
		0.27146897f, -0.25400323f, 0.009217262f, -0.21025732f, -0.0185754f, 
		0.13771841f, 0.15591472f, -0.05502814f, 0.1896717f, 0.27185515f, 
		0.2662973f, -0.14419968f, -0.24173227f, 0.05198583f, 0.06535047f, 
		0.29662368f, 0.19591895f, -0.23175135f, -0.10607715f, -0.2545976f, 
		0.1293959f, -0.30426222f, -0.004533112f, -0.25541702f, -0.0045428276f, 
		-0.2616884f, 0.06224096f, 0.17964405f, -0.23162842f, 0.21842358f, 
		0.06657833f, 0.05467117f, -0.07966907f, -0.21927397f, -0.034496248f, 
		0.025684506f, -0.12488434f, -0.012004942f, 0.22638741f, -0.26168865f, 
		0.06781533f, 0.18246317f, 0.12822828f, 0.045145184f, -0.26033995f, 
		-0.038032144f, -0.062351182f, 0.13174543f, 0.285988f, -0.100238934f, 
		0.036444694f, 0.12364948f, 0.2554609f, -0.18852252f, 0.1115776f, 
		0.09503642f, -0.15431361f, 0.08812627f, 0.026286393f, 0.02662912f, 
		0.1833902f, 0.02235347f, -0.20694922f, 0.017880678f, -0.101080924f, 
		-0.14413114f, 0.06807622f, 0.030550838f, 0.0042125583f, -0.03192568f, 
		-0.22884607f, -0.046470344f, -0.29852688f, 0.11869389f, -0.038114935f, 
		-0.21723127f, 0.2680342f, -0.11843912f, 0.06872681f, 0.1934666f, 
		0.03195384f, 0.28491953f, 0.0393745f, 0.25456557f, 0.3005f, 
		0.012081802f, 0.07562959f, -0.17968537f, 0.17132053f, 0.29949918f, 
		0.05862853f, 0.22625086f, -0.015523046f, -0.078002766f, 0.050653636f, 
		0.008616328f, 0.13373515f, 0.2964063f, 0.05471787f, 0.065709054f, 
		0.035437435f, 0.20102909f, 0.21835527f, 0.16544196f, -0.23307559f, 
		-0.15103392f, 0.29547307f, -0.14632429f, 0.17125177f, 0.13573527f, 
		0.044172525f, 0.12950417f, 0.25410858f, 0.1810526f, -0.16234994f, 
		-0.24841101f, 0.12301999f, 0.14216802f, -0.06551415f, 0.20124665f, 
		-0.044160098f, -0.21135795f, 0.04602155f, 0.13987112f, 0.29723105f, 
		0.02598992f, -0.25704017f, 0.15983713f, 0.21439841f, 0.18800887f, 
		0.24196002f, 0.13310829f, 0.042784274f, -0.09518249f, 0.021648586f, 
		-0.28033814f, -0.11723696f, 0.23689553f, -0.10519545f, -0.11309476f, 
		-0.27030373f, -0.038828164f, -0.1680934f, -0.27057052f, -0.120504096f, 
		0.29422978f, 0.14913657f, -0.22398484f, 0.29543266f, -0.23104836f, 
		-0.030450702f, 0.19120198f, 0.04673025f, -0.19088495f, 0.056496322f, 
		-0.07499428f, 0.23809335f, -0.222987f, -0.3010403f, 0.112306714f, 
		0.038873047f, 0.03511244f, -0.22485639f, -0.22635758f, -0.22002068f, 
		-0.25610206f, -0.23375523f, 0.11678055f, -0.14652051f, 0.12008324f, 
		-0.29756904f, 0.28507093f, 0.11825508f, 0.010578066f, 0.08468765f, 
		0.15411636f, -0.05523026f, 0.11625832f, -0.09667228f, -0.0238913f, 
		-0.14430918f, -0.0958906f, -0.113369614f, 0.20303372f, 0.26521888f, 
		-0.20096815f, -0.019609243f, -0.14738601f, 0.08497745f, 0.11188397f, 
		-0.26062867f, -0.023505569f, 0.2625464f, -0.06851359f, -0.012751579f, 
		-0.17542432f, 0.27208593f, 0.059734046f, -0.11053492f, -0.24033082f, 
		-0.01363042f, 0.24320266f, 0.24205068f, 0.24838749f, 0.010626614f, 
		-0.0141083f, 0.23618308f, 0.14369431f, -0.20810527f, 0.035806894f, 
		-0.1563585f, -0.19404778f, -0.2722158f, -0.0816998f, 0.24574968f, 
		-0.010834515f, -0.1735058f, -0.0067120194f, -0.036901444f, -0.09355968f, 
		0.14996308f, -0.11034913f, -0.08573936f, -0.13832636f, 0.08417183f, 
		-0.052389383f, -0.20042035f, 0.08865252f, 0.26565805f, 0.19900385f, 
		-0.048657f, 0.09845284f, -0.087258205f, -0.14351845f, 0.21182707f, 
		0.063688695f, 0.05821067f, 0.27240625f, -0.20676708f, -0.13491715f, 
		0.09631604f, 0.25728503f, 0.30583873f, -0.23992456f, -0.10818972f, 
		0.24535033f, -0.015351117f, -0.24098861f, 0.070936024f, -0.006270677f, 
		-0.29557714f, 0.09037045f, 0.1899018f, 0.14444628f, -0.079319924f, 
		0.106061965f, 0.1414491f, 0.21970645f, 0.18041441f, -0.13394721f, 
		0.25672862f, 0.17390803f, 0.015204698f, 0.29398683f, 0.19992796f, 
		0.061425954f, -0.006488651f, -0.14198375f, 0.22899726f, 0.18889081f, 
		-0.24768305f, 0.25023714f, -0.26130247f, 0.028116792f, -0.25461614f, 
		-0.008870006f, -0.069515735f, 0.043385655f, -0.21502161f, 0.17120102f, 
		0.157758f, -0.29644373f, -0.19588673f, 0.2206907f, 0.2224454f, 
		0.22871068f, 0.073643774f, -0.015824527f, -0.017607361f, -0.27575868f, 
		0.048876673f, -0.07206893f, -0.052675694f, -0.16824225f, -0.21439368f, 
		-0.022587895f, -0.24681231f, -0.11396077f, 0.08343086f, -0.1923116f, 
		0.17090413f, 0.119831115f, -0.030274183f, 0.20401463f, -0.19109286f, 
		-0.15365683f, -0.0662294f, -0.20557585f, 0.20289472f, 0.19444188f, 
		-0.30082294f, 0.30592707f, -0.09419873f, -0.16182652f, -0.18109135f, 
		-0.116154656f, -0.17373115f, -0.23366594f, 0.23275134f, -0.23497257f, 
		0.23887822f, -0.035557657f, 0.14804351f, -0.08940296f, 0.23927793f, 
		-0.01591447f, 0.25064f, 0.25682804f, 0.016743839f, 0.28567573f, 
		0.25705335f, -0.121975124f, -0.25520146f, 0.1778462f, -0.14750434f, 
		0.21370634f, -0.29457724f, -0.25315225f, -0.24810135f, 0.20622024f, 
		-0.28858072f, -0.10828425f, -0.15151952f, -0.16981336f, 0.15455216f, 
		0.11159694f, -0.22537535f, 0.26226714f, -0.13570878f, 0.25429615f, 
